{"model_info": {"nombre": "Diabeter detection model", "model_version": "v1.0.0", "neurons_num": 302, "layers_num": 4, "params_num": 331}, "input_layer": {"n_entradas": 31}, "layers": {"layer_1": {"neuron_1": {"i": ["x1", "x31"], "o": ["o1"], "p": {"w": [-0.09250834584236145, -0.1330212950706482, -0.06555493175983429, 0.20222419500350952, 0.04727932810783386, -0.06771440804004669, 0.023360133171081543, -0.016985729336738586, -0.004659712314605713, -0.1535489559173584, -0.08802267909049988, 0.12549039721488953, 0.21399244666099548, -0.10374152660369873, 0.20110809803009033, 0.14219027757644653, -0.22477060556411743, -0.12079843133687973, -0.05204540491104126, 0.069329172372818, 0.021876633167266846, 0.21535423398017883, 0.014752119779586792, -0.1402740776538849, 0.039264976978302, 0.0329681932926178, -0.12259212881326675, 0.13461032509803772, 0.0621027946472168, 0.1382628083229065, -0.029923364520072937]}, "b": 0.0, "f": "relu"}, "neuron_2": {"i": ["x1", "x31"], "o": ["o2"], "p": {"w": [-0.1224188506603241, -0.01111428439617157, -0.1855306476354599, -0.2147146761417389, -0.1927327662706375, -0.1702404022216797, -0.014379128813743591, 0.02817472815513611, 0.15637710690498352, 0.015030995011329651, -0.14890426397323608, -0.10894878953695297, -0.07784202694892883, 0.15685337781906128, 0.11602729558944702, 0.10034158825874329, -0.04845866560935974, 0.2198815643787384, 0.12557265162467957, -0.13159886002540588, -0.07233034074306488, 0.18604421615600586, -0.19358274340629578, -0.22818750143051147, -0.19416376948356628, -0.18656355142593384, 0.01272517442703247, 0.04922357201576233, 0.1422506868839264, 0.15754187107086182, 0.11943703889846802]}, "b": 0.0, "f": "relu"}, "neuron_3": {"i": ["x1", "x31"], "o": ["o3"], "p": {"w": [0.20115038752555847, -0.11218109726905823, -0.029190003871917725, -0.14227446913719177, -0.006382569670677185, 0.050937652587890625, -0.19799135625362396, -0.11199994385242462, -0.22532613575458527, -0.08178950846195221, 0.06185877323150635, 0.13302937150001526, -0.1459529995918274, -0.04876299202442169, -0.1266014128923416, 0.13562294840812683, 0.1577160358428955, -0.13139410316944122, -0.08660957217216492, 0.2026858925819397, 0.076711505651474, 0.04938581585884094, 0.11697372794151306, 0.1390482485294342, -0.012679114937782288, 0.22591948509216309, -0.2132032811641693, -0.1660017967224121, -0.17850734293460846, 0.1186983585357666, 0.15540507435798645]}, "b": 0.0, "f": "relu"}, "neuron_4": {"i": ["x1", "x31"], "o": ["o4"], "p": {"w": [-0.2174910008907318, -0.13783392310142517, 0.09686461091041565, -0.12230920791625977, -0.04098859429359436, 0.07868817448616028, 0.14684683084487915, -0.141131192445755, -0.22318145632743835, -0.06689082086086273, 0.14414459466934204, 0.06729385256767273, -0.17373311519622803, -0.0020698606967926025, -0.03781433403491974, 0.1404760181903839, 0.22156545519828796, 0.08509159088134766, -0.0008240342140197754, -0.07327371835708618, -0.09648697078227997, -0.07399548590183258, -0.21727946400642395, 0.04672989249229431, -0.10674618184566498, -0.1262962520122528, 0.0027187317609786987, -0.22995097935199738, 0.1995355486869812, 0.1705872118473053, 0.09458544850349426]}, "b": 0.0, "f": "relu"}, "neuron_5": {"i": ["x1", "x31"], "o": ["o5"], "p": {"w": [-0.20398291945457458, -0.15250468254089355, 0.14452442526817322, -0.1607525646686554, 0.15532168745994568, 0.21353930234909058, 0.08630675077438354, -0.21660619974136353, 0.0496009886264801, 0.11838433146476746, 0.13663411140441895, 0.18357419967651367, 0.2082872986793518, -0.10454489290714264, 0.05900034308433533, 0.05785742402076721, -0.20598869025707245, -0.15129932761192322, -0.02148158848285675, 0.028385430574417114, 0.2180369794368744, 0.02089744806289673, 0.017055407166481018, 0.2208544909954071, 0.1897282898426056, -0.028990790247917175, 0.13887768983840942, 0.0542372465133667, 0.1572212278842926, 0.0389193594455719, 0.19880735874176025]}, "b": 0.0, "f": "relu"}, "neuron_6": {"i": ["x1", "x31"], "o": ["o6"], "p": {"w": [0.0854194164276123, -0.2203749716281891, 0.16170471906661987, 0.0012719184160232544, -0.21038350462913513, 0.166161447763443, 0.20405390858650208, 0.02036646008491516, 0.1743893027305603, 0.07041290402412415, -0.011071711778640747, -0.06694580614566803, 0.05450749397277832, 0.10986602306365967, 0.06021168828010559, 0.02081906795501709, 0.17320919036865234, -0.09128691256046295, 0.09916952252388, 0.15500062704086304, 0.11406859755516052, -0.1858547031879425, -0.12666121125221252, -0.19080275297164917, 0.06629300117492676, 0.0635199248790741, -0.20292134582996368, -0.035756781697273254, -0.09861359000205994, 0.19786995649337769, -0.06461243331432343]}, "b": 0.0, "f": "relu"}, "neuron_7": {"i": ["x1", "x31"], "o": ["o7"], "p": {"w": [0.03148496150970459, -0.19125546514987946, 0.06498008966445923, -0.0852593332529068, -0.12509694695472717, -0.0758495032787323, 0.15899452567100525, 0.12660756707191467, -0.21629950404167175, -0.05249045789241791, 0.14186960458755493, -0.13701006770133972, -0.0013471394777297974, 0.12477856874465942, -0.13288110494613647, 0.11786168813705444, 0.13148313760757446, -0.04643671214580536, -0.17776978015899658, 0.15155845880508423, 0.0393146276473999, -0.11330241709947586, -0.18929819762706757, 0.08742114901542664, 0.20163729786872864, 0.004275962710380554, 0.04700952768325806, -0.09953901171684265, 0.09593737125396729, 0.22883686423301697, -0.06197728216648102]}, "b": 0.0, "f": "relu"}, "neuron_8": {"i": ["x1", "x31"], "o": ["o8"], "p": {"w": [0.17070534825325012, 0.10151845216751099, 0.09636104106903076, -0.2236478477716446, 0.11351564526557922, 0.0417422354221344, -0.15352733433246613, -0.009502798318862915, -0.09861829876899719, 0.16706347465515137, 0.1169353723526001, 0.07655951380729675, -0.007571011781692505, -0.14016570150852203, -0.21434949338436127, 0.04974183440208435, -0.08108624815940857, -0.14564722776412964, -0.2066957652568817, -0.03301648795604706, -0.041136935353279114, -0.20993894338607788, 0.16912052035331726, -0.1276688575744629, -0.10845378786325455, -0.21246211230754852, -0.086846262216568, 0.11395737528800964, 0.12504738569259644, 0.14112243056297302, -0.0661340206861496]}, "b": 0.0, "f": "relu"}, "neuron_9": {"i": ["x1", "x31"], "o": ["o9"], "p": {"w": [0.16094043850898743, 0.14925789833068848, -0.22004736959934235, -0.016868039965629578, 0.1873059868812561, 0.2179490327835083, -0.048638716340065, -0.004058673977851868, -0.20529557764530182, 0.08148658275604248, -0.21408680081367493, 0.12860152125358582, -0.002568453550338745, -0.22639186680316925, 0.005800262093544006, 0.1189182698726654, 0.19262656569480896, 0.17707493901252747, 0.10946318507194519, 0.04112473130226135, -0.08324085175991058, 0.02364295721054077, 0.16657617688179016, 0.06557971239089966, -0.06762661039829254, -0.10420677065849304, -0.21613293886184692, -0.07337920367717743, -0.04937899112701416, -0.16044370830059052, -0.08443334698677063]}, "b": 0.0, "f": "relu"}, "neuron_10": {"i": ["x1", "x31"], "o": ["o10"], "p": {"w": [0.0931304395198822, 0.06705424189567566, -0.03520147502422333, -0.09957171976566315, -0.04667660593986511, -0.1726115643978119, -0.008430689573287964, 0.19054356217384338, 0.13167625665664673, -0.16249993443489075, -0.008023887872695923, 0.22554737329483032, 0.1560267210006714, 0.13366058468818665, 0.1011982262134552, 0.06232881546020508, -0.2191249430179596, -0.21885909140110016, 0.08836695551872253, -0.11874215304851532, 0.16121989488601685, 0.05807870626449585, -0.03918254375457764, -0.12107215076684952, 0.15081197023391724, 0.22782742977142334, 0.11984845995903015, -0.1571044772863388, 0.03870055079460144, 0.023913949728012085, 0.21394717693328857]}, "b": 0.0, "f": "relu"}, "neuron_11": {"i": ["x1", "x31"], "o": ["o11"], "p": {"w": [-0.04871220886707306, 0.04064992070198059, 0.09706729650497437, -0.18535387516021729, -0.10540269315242767, -0.05643777549266815, -0.04561677575111389, -0.22808539867401123, 0.12494605779647827, -0.17309249937534332, 0.009887099266052246, 0.14462053775787354, -0.12198426574468613, 0.209050714969635, 0.03955221176147461, -0.09329846501350403, -0.11331571638584137, -0.09941428899765015, 0.13698837161064148, 0.20319101214408875, -0.04090479016304016, -0.18479667603969574, -0.004434987902641296, 0.17050889134407043, 0.029161691665649414, -0.07209885120391846, 0.15097859501838684, 0.0998137891292572, -0.1231742650270462, -0.0845927745103836, -0.09474267065525055]}, "b": 0.0, "f": "relu"}, "neuron_12": {"i": ["x1", "x31"], "o": ["o12"], "p": {"w": [-0.1110750213265419, 0.13074898719787598, 0.11621719598770142, 0.07152196764945984, 0.2077101767063141, 0.13089001178741455, 0.002799108624458313, 0.2091471552848816, 0.22574087977409363, 0.03923115134239197, 0.022299736738204956, 0.02008572220802307, 0.18763259053230286, -0.1537170708179474, 0.19245189428329468, 0.08441457152366638, -0.10959307104349136, -0.142880380153656, -0.0854424238204956, 0.01361168920993805, 0.03402554988861084, 0.18601122498512268, -0.02544507384300232, -0.2108348160982132, 0.121387779712677, 0.18544933199882507, 0.11591306328773499, -0.04649019241333008, -0.044022515416145325, -0.13375014066696167, 0.16755595803260803]}, "b": 0.0, "f": "relu"}, "neuron_13": {"i": ["x1", "x31"], "o": ["o13"], "p": {"w": [0.20065736770629883, -0.07531115412712097, 0.09513011574745178, -0.1251983940601349, -0.14005693793296814, 0.129165381193161, -0.038980767130851746, -0.19052205979824066, 0.08468949794769287, 0.03499409556388855, -0.0019616037607192993, -0.02529275417327881, -0.1523999273777008, 0.18975260853767395, 0.027867764234542847, 0.14462924003601074, 0.18237462639808655, -0.10849785804748535, -0.11727406084537506, -0.15088076889514923, 0.18147990107536316, 0.17003613710403442, -0.024510115385055542, -0.0786600261926651, 0.1646011471748352, -0.03489527106285095, -0.2284495234489441, 0.13929644227027893, -0.04719217121601105, -0.090725839138031, 0.11778706312179565]}, "b": 0.0, "f": "relu"}, "neuron_14": {"i": ["x1", "x31"], "o": ["o14"], "p": {"w": [-0.11931564658880234, -0.007756650447845459, -0.04643598198890686, 0.02980351448059082, -0.15147477388381958, 0.14222335815429688, -0.044579267501831055, -0.14255616068840027, 0.22293898463249207, -0.18580098450183868, -0.012298241257667542, -0.1116008386015892, -0.08758001029491425, 0.1857968270778656, 0.13495111465454102, 0.0375826358795166, -0.044039368629455566, 0.07554590702056885, 0.06355509161949158, -0.07244375348091125, 0.11890777945518494, 0.1341225504875183, -0.10097679495811462, -0.19742617011070251, -0.18497112393379211, -0.015943780541419983, -0.027080193161964417, -0.056448355317115784, 0.14147627353668213, 0.06614804267883301, 0.02659362554550171]}, "b": 0.0, "f": "relu"}, "neuron_15": {"i": ["x1", "x31"], "o": ["o15"], "p": {"w": [0.19690600037574768, 0.1301337480545044, 0.0851309597492218, 0.09785261750221252, -0.11093073338270187, -0.0038602352142333984, 0.13008150458335876, 0.06267106533050537, -0.08149322867393494, -0.025573953986167908, -0.0959010124206543, -0.019165217876434326, 0.172489196062088, -0.13200445473194122, 0.03400200605392456, 0.03577461838722229, -0.1086539551615715, 0.166610985994339, -0.08620764315128326, -0.052392736077308655, -0.01607021689414978, 0.07505351305007935, -0.21703484654426575, 0.06188508868217468, -0.11526922136545181, 0.210200697183609, 0.13583332300186157, 0.03231051564216614, 0.18485721945762634, -0.06375131011009216, 0.07292872667312622]}, "b": 0.0, "f": "relu"}, "neuron_16": {"i": ["x1", "x31"], "o": ["o16"], "p": {"w": [0.23182737827301025, -0.13392558693885803, -0.1583343744277954, 0.07923078536987305, -0.18400561809539795, 0.12474125623703003, 0.15840473771095276, 0.19181182980537415, -0.131337508559227, -0.041879042983055115, 0.16981378197669983, 0.08169189095497131, 0.04922589659690857, -0.19228433072566986, -0.21194715797901154, -0.22784078121185303, -0.0753609836101532, -0.1806456595659256, 0.041875988245010376, 0.05901482701301575, 0.13781753182411194, 0.18764296174049377, -0.18493060767650604, -0.03968723118305206, 0.1716696321964264, 0.0728873610496521, 0.05581870675086975, 0.06474673748016357, 0.07512450218200684, 0.16080793738365173, -0.17092463374137878]}, "b": 0.0, "f": "relu"}, "neuron_17": {"i": ["x1", "x31"], "o": ["o17"], "p": {"w": [-0.2269207239151001, 0.2289600372314453, -0.09351015090942383, 0.01756957173347473, -0.12544649839401245, 0.033911705017089844, 0.11174318194389343, -0.024687722325325012, -0.07627199590206146, -0.09887167811393738, 0.17669281363487244, 0.18980860710144043, 0.10894337296485901, -0.20619207620620728, 0.06034433841705322, 0.20075976848602295, -0.039463967084884644, 0.10441902279853821, -0.14120620489120483, 0.05011206865310669, -0.1532476842403412, 0.1771172285079956, -0.18787378072738647, 0.011865600943565369, 0.1403757929801941, 0.10282537341117859, -0.03939571976661682, 0.038590967655181885, 0.160060852766037, 0.11939883232116699, -0.050982341170310974]}, "b": 0.0, "f": "relu"}, "neuron_18": {"i": ["x1", "x31"], "o": ["o18"], "p": {"w": [-0.1340833455324173, -0.014650404453277588, 0.10789918899536133, 0.06717789173126221, -0.006120815873146057, 0.17626294493675232, 0.20240500569343567, -0.20856225490570068, 0.10667133331298828, 0.20096957683563232, 0.12677401304244995, 0.04544821381568909, -0.14208045601844788, -0.22696879506111145, 0.0741453766822815, 0.046875208616256714, -0.0018087774515151978, -0.030236944556236267, -0.06905534863471985, 0.017932534217834473, -0.22701884806156158, -0.07588380575180054, 0.02486354112625122, -0.18939991295337677, 0.1920701265335083, -0.20202502608299255, -0.17644575238227844, 0.13578152656555176, 0.09898507595062256, 0.09336325526237488, -0.021016627550125122]}, "b": 0.0, "f": "relu"}, "neuron_19": {"i": ["x1", "x31"], "o": ["o19"], "p": {"w": [0.20078358054161072, -0.22852197289466858, 0.14712592959403992, -0.0813252180814743, -0.171827495098114, -0.022247478365898132, -0.2010880708694458, 0.15412089228630066, 0.174241304397583, 0.1250588297843933, 0.201493501663208, 0.15625837445259094, -0.22715286910533905, -0.10042047500610352, -0.08549031615257263, 0.13249391317367554, -0.10683153569698334, -0.21933791041374207, -0.13155917823314667, 0.06857126951217651, 0.19963133335113525, 0.017107561230659485, -0.14589112997055054, -0.052218958735466, 0.13313347101211548, 0.07885125279426575, 0.09229904413223267, 0.13901734352111816, -0.19499990344047546, -0.14723250269889832, -0.11499527841806412]}, "b": 0.0, "f": "relu"}, "neuron_20": {"i": ["x1", "x31"], "o": ["o20"], "p": {"w": [-0.024950683116912842, 0.14344283938407898, 0.16198080778121948, 0.052941322326660156, 0.18911504745483398, -0.22738796472549438, 0.11935582756996155, 0.10656759142875671, -0.2133760005235672, -0.09365737438201904, -0.2009439468383789, -0.15782330930233002, -0.06016629934310913, -0.04074941575527191, 0.024178028106689453, -0.08773748576641083, -0.03052656352519989, -0.22194412350654602, -0.05232870578765869, 0.07045570015907288, -0.21032734215259552, -0.19739331305027008, 0.1615801453590393, -0.2133915275335312, 0.032612383365631104, -0.059326231479644775, 0.17904230952262878, 0.2286989688873291, -0.08036042749881744, 0.09573715925216675, 0.03575539588928223]}, "b": 0.0, "f": "relu"}, "neuron_21": {"i": ["x1", "x31"], "o": ["o21"], "p": {"w": [0.1802358627319336, 0.17321711778640747, 0.10913586616516113, 0.16370272636413574, -0.006593599915504456, 0.15993541479110718, -0.167569100856781, -0.17639148235321045, 0.16835156083106995, -0.03275179862976074, -0.04423770308494568, -0.21597661077976227, -0.22660765051841736, 0.15624657273292542, 0.04214826226234436, 0.20837357640266418, 0.1711677610874176, -0.06545615196228027, 0.026192188262939453, 0.17536118626594543, -0.09625343978404999, -0.17054520547389984, -0.09147045016288757, 0.020366311073303223, 0.189763605594635, -0.17634963989257812, 0.11379170417785645, -0.14592228829860687, -0.08895869553089142, -0.10705941915512085, 0.13636484742164612]}, "b": 0.0, "f": "relu"}, "neuron_22": {"i": ["x1", "x31"], "o": ["o22"], "p": {"w": [0.13839268684387207, 0.10537025332450867, -0.10040019452571869, 0.1710224151611328, 0.04193958640098572, 0.22754698991775513, 0.048386603593826294, -0.06798802316188812, 0.18897518515586853, -0.03554348647594452, -0.16159605979919434, 0.013689398765563965, 0.13737574219703674, 0.09781578183174133, -0.1018185168504715, -0.003958180546760559, -0.20865498483181, 0.11691164970397949, -0.2079532891511917, 0.2266390323638916, -0.1290786862373352, 0.116996169090271, -0.13076502084732056, 0.16273045539855957, -0.12511618435382843, -0.023803040385246277, -0.10232853889465332, 0.2165927290916443, 0.20815783739089966, -0.05974806845188141, -0.06604155898094177]}, "b": 0.0, "f": "relu"}, "neuron_23": {"i": ["x1", "x31"], "o": ["o23"], "p": {"w": [-0.09747885167598724, -0.04260258376598358, -0.22758640348911285, 0.025290638208389282, -0.1043001115322113, 0.10826265811920166, -0.1167156994342804, 0.17391657829284668, -0.11879165470600128, -0.030756548047065735, -0.13876944780349731, -0.1686038374900818, -0.15567412972450256, 0.11497676372528076, -0.13312460482120514, -0.014946848154067993, -0.21964167058467865, -0.09129595756530762, 0.0705757737159729, -0.097280353307724, 0.12110447883605957, 0.08506864309310913, -0.09944295883178711, -0.1324443519115448, 0.19355684518814087, -0.11647024750709534, 0.07515162229537964, -0.1871751844882965, 0.027977854013442993, 0.09649413824081421, 0.22218218445777893]}, "b": 0.0, "f": "relu"}, "neuron_24": {"i": ["x1", "x31"], "o": ["o24"], "p": {"w": [0.1332513689994812, 0.17628982663154602, 0.08022335171699524, 0.1021222174167633, 0.1621762216091156, 0.09960919618606567, -0.0657418966293335, -0.13736853003501892, -0.02033005654811859, -0.04604297876358032, 0.024147212505340576, 0.13833099603652954, 0.13009890913963318, -0.14631058275699615, 0.015061825513839722, 0.1224621832370758, -0.1908656805753708, 0.09999871253967285, -0.07512561976909637, 0.11609059572219849, -0.01802772283554077, 0.17526400089263916, -0.22490669786930084, 0.061597198247909546, 0.08199819922447205, 0.025364995002746582, -0.008725538849830627, -0.011527910828590393, 0.029759913682937622, 0.20354905724525452, -0.0012729167938232422]}, "b": 0.0, "f": "relu"}, "neuron_25": {"i": ["x1", "x31"], "o": ["o25"], "p": {"w": [0.00010958313941955566, 0.14184686541557312, -0.010570734739303589, -0.14134112000465393, -0.10987576842308044, 0.14635664224624634, 0.13568109273910522, 0.04297041893005371, -0.06289122998714447, -0.224138081073761, -0.1411469429731369, 0.13658317923545837, -0.018145620822906494, 0.009710773825645447, 0.043596088886260986, -0.14257168769836426, -0.1025848537683487, 0.0771055519580841, 0.01555703580379486, -0.16289708018302917, -0.17102673649787903, -0.11168814450502396, -0.1265653818845749, -0.14878907799720764, 0.06217765808105469, 0.08753925561904907, 0.07206553220748901, -0.163382887840271, -0.22398531436920166, 0.02260345220565796, -0.11049631983041763]}, "b": 0.0, "f": "relu"}, "neuron_26": {"i": ["x1", "x31"], "o": ["o26"], "p": {"w": [-0.16202011704444885, -0.0927552878856659, 0.17715924978256226, 0.039601922035217285, -0.17071904242038727, -0.13232973217964172, -0.07825958728790283, -0.2237776219844818, -0.06611333787441254, -0.09012231230735779, -0.0938832014799118, -0.03762187063694, -0.06784228980541229, 0.04111775755882263, -0.1147245541214943, 0.18640345335006714, -0.2182120382785797, 0.19563692808151245, 0.17748963832855225, 0.2138597071170807, 0.19648951292037964, -0.1232343539595604, 0.13878962397575378, 0.15821421146392822, 0.032865554094314575, -0.16543278098106384, -0.09817846119403839, -0.13941672444343567, 0.028957247734069824, 0.15044370293617249, -0.06572410464286804]}, "b": 0.0, "f": "relu"}, "neuron_27": {"i": ["x1", "x31"], "o": ["o27"], "p": {"w": [0.06791362166404724, -0.011664435267448425, -0.17064182460308075, 0.014120101928710938, 0.21818548440933228, 0.1453987956047058, -0.19434502720832825, -0.22901131212711334, 0.12590664625167847, -0.0938647985458374, 0.11340302228927612, 0.15543627738952637, -0.19932802021503448, 0.16805624961853027, -0.06341738998889923, 0.07383108139038086, -0.15440058708190918, -0.06798890233039856, 0.15764427185058594, -0.05197151005268097, -0.09209659695625305, -0.14077886939048767, -0.2312270700931549, 0.0066373348236083984, 0.1563844382762909, 0.19054388999938965, -0.15508833527565002, -0.1569077968597412, -0.0251292884349823, 0.16186270117759705, 0.046955108642578125]}, "b": 0.0, "f": "relu"}, "neuron_28": {"i": ["x1", "x31"], "o": ["o28"], "p": {"w": [-0.10167056322097778, 0.11748653650283813, 0.12077674269676208, -0.17618660628795624, -0.015109717845916748, 0.05616116523742676, -0.2007671296596527, 0.14699742197990417, 0.20487573742866516, -0.22086159884929657, -0.08312445878982544, -0.006831452250480652, -0.23000580072402954, 0.13485771417617798, 0.21371573209762573, 0.19833818078041077, 0.10471433401107788, 0.20049330592155457, 0.006415277719497681, -0.17548823356628418, 0.04930034279823303, -0.08841502666473389, -0.15271909534931183, -0.005605250597000122, 0.0012781918048858643, -0.05094553530216217, -0.08202303946018219, 0.10548767447471619, -0.0537903755903244, -0.057035982608795166, 0.05494040250778198]}, "b": 0.0, "f": "relu"}, "neuron_29": {"i": ["x1", "x31"], "o": ["o29"], "p": {"w": [-0.06507401168346405, -0.1933320313692093, -0.07193450629711151, -0.03516992926597595, -0.2150052934885025, -0.011169269680976868, 0.10533261299133301, -0.22462105751037598, 0.11855447292327881, -0.19567367434501648, -0.1507950723171234, 0.011731117963790894, 0.15294620394706726, 0.13496369123458862, -0.12070097774267197, -0.02692730724811554, 0.2117190659046173, -0.22931525111198425, 0.015402942895889282, -0.015096470713615417, 0.09842157363891602, -0.18165650963783264, -0.09975691139698029, -0.11861821264028549, -0.22092978656291962, 0.19622039794921875, 0.10370111465454102, -0.1906268298625946, -0.17248159646987915, -0.09767459332942963, -0.053583621978759766]}, "b": 0.0, "f": "relu"}, "neuron_30": {"i": ["x1", "x31"], "o": ["o30"], "p": {"w": [-0.07980650663375854, -0.06033053994178772, 0.1780203878879547, -0.09561088681221008, -0.11521367728710175, -0.011503919959068298, -0.050067782402038574, 0.030367106199264526, 0.04897412657737732, -0.2157732993364334, -0.015399947762489319, 0.05640822649002075, 0.07682281732559204, 0.22118642926216125, -0.12409702688455582, -0.03580339252948761, -0.1624354124069214, 0.15355023741722107, -0.1752050369977951, -0.1751314252614975, 0.06648039817810059, -0.18267694115638733, -0.17284061014652252, 0.2245846390724182, 0.05918610095977783, 0.0533294677734375, -0.023528054356575012, 0.021049946546554565, 0.06838461756706238, 0.021326810121536255, 0.11390313506126404]}, "b": 0.0, "f": "relu"}, "neuron_31": {"i": ["x1", "x31"], "o": ["o31"], "p": {"w": [-0.030530720949172974, 0.06887665390968323, -0.05359452962875366, 0.04906803369522095, -0.21366862952709198, 0.21066713333129883, 0.09341558814048767, -0.1659294068813324, 0.0729144811630249, -0.22301416099071503, -0.03237442672252655, -0.22901520133018494, -0.23194396495819092, -0.10134473443031311, 0.06843462586402893, -0.03344646096229553, -0.09254293143749237, -0.008031874895095825, 0.012959092855453491, -0.15241189301013947, 0.1003400981426239, -0.14807888865470886, 0.09104645252227783, 0.019816160202026367, 0.13954636454582214, 0.20724397897720337, -0.047502368688583374, -0.11279754340648651, 0.21376794576644897, 0.07782912254333496, -0.1725078672170639]}, "b": 0.0, "f": "relu"}, "neuron_32": {"i": ["x1", "x31"], "o": ["o32"], "p": {"w": [0.17156276106834412, 0.04551920294761658, -0.08395807445049286, -0.018009647727012634, -0.1567402482032776, -0.06895047426223755, 0.008341729640960693, -0.21462048590183258, 0.0318625271320343, -0.04709699749946594, 0.07742828130722046, -0.019812986254692078, 0.04297718405723572, 0.057870954275131226, 0.107968270778656, -0.09187188744544983, -0.10139335691928864, -0.12635540962219238, -0.12510332465171814, -0.23127557337284088, 0.1423054039478302, 0.1614324450492859, 0.07237905263900757, 0.19289284944534302, -0.045956119894981384, 0.00977236032485962, 0.12731269001960754, 0.22447249293327332, 0.07116574048995972, 0.19652491807937622, 0.07514789700508118]}, "b": 0.0, "f": "relu"}, "neuron_33": {"i": ["x1", "x31"], "o": ["o33"], "p": {"w": [-0.11415572464466095, -0.12001679092645645, 0.14577212929725647, 0.08599889278411865, -0.14337389171123505, 0.020413637161254883, -0.19303403794765472, 0.08216848969459534, 0.1166415810585022, 0.04549837112426758, -0.2068053036928177, 0.028656482696533203, 0.19588986039161682, -0.20380502939224243, 0.08080825209617615, 0.054612696170806885, 0.10738763213157654, -0.16642345488071442, 0.04697972536087036, -0.11491357535123825, -0.0757254958152771, 0.16033229231834412, 0.2106131911277771, -0.22925959527492523, -0.0770799070596695, 0.042544424533843994, 0.03915044665336609, 0.006996527314186096, -0.22944745421409607, -0.1591101437807083, 0.171945720911026]}, "b": 0.0, "f": "relu"}, "neuron_34": {"i": ["x1", "x31"], "o": ["o34"], "p": {"w": [-0.15691207349300385, 0.013235419988632202, 0.21661636233329773, 0.14585426449775696, -0.02195774018764496, -0.049507200717926025, 0.21790167689323425, 0.20026126503944397, -0.20519569516181946, 0.09675896167755127, 0.04305112361907959, -0.21871092915534973, 0.17630696296691895, -0.16088321805000305, 0.18697306513786316, 0.07545143365859985, 0.13592931628227234, -0.16011294722557068, -0.08889462053775787, 0.21315771341323853, -0.1484832614660263, -0.19164469838142395, -0.058733731508255005, 0.21708661317825317, 0.10906913876533508, -0.0891372412443161, -0.20525212585926056, 0.056466877460479736, -0.22174733877182007, 0.01115359365940094, 0.20998340845108032]}, "b": 0.0, "f": "relu"}, "neuron_35": {"i": ["x1", "x31"], "o": ["o35"], "p": {"w": [-0.22722870111465454, -0.23100684583187103, 0.050586849451065063, -0.1084749698638916, -0.12777450680732727, -0.09347124397754669, 0.06290698051452637, 0.19788548350334167, 0.1625538170337677, 0.09213629364967346, 0.20904922485351562, 0.1381615400314331, -0.1742812693119049, -0.21777091920375824, 0.1778828501701355, 0.026390016078948975, 0.22721430659294128, -0.01628495752811432, 0.15865904092788696, -0.012009397149085999, 0.19620740413665771, -0.1396583914756775, 0.026317685842514038, -0.08589546382427216, -0.09032651782035828, -0.09115870296955109, -0.18905629217624664, 0.02136784791946411, 0.19541630148887634, 0.005573779344558716, 0.11307337880134583]}, "b": 0.0, "f": "relu"}, "neuron_36": {"i": ["x1", "x31"], "o": ["o36"], "p": {"w": [0.01786014437675476, 0.1083599328994751, -0.19483444094657898, -0.21145892143249512, -0.06095623970031738, 0.19158324599266052, -0.0018080472946166992, -0.18979740142822266, -0.08793433010578156, 0.18806633353233337, -0.09533444046974182, -0.0002141892910003662, -0.14957520365715027, -0.041415587067604065, -0.025344520807266235, 0.1779317557811737, 0.08805206418037415, -0.05060774087905884, 0.18939033150672913, 0.11336106061935425, 0.10509416460990906, 0.14515545964241028, 0.020406484603881836, 0.06006503105163574, -0.20703096687793732, -0.019365325570106506, 0.053959280252456665, -0.10737365484237671, 0.02974039316177368, 0.08153313398361206, 0.07695606350898743]}, "b": 0.0, "f": "relu"}, "neuron_37": {"i": ["x1", "x31"], "o": ["o37"], "p": {"w": [-0.088234543800354, 0.15673574805259705, -0.09099356830120087, -0.11506956070661545, -0.05709312856197357, 0.16178277134895325, -0.12080702185630798, 0.023785650730133057, -0.2195437252521515, 0.17895838618278503, -0.0143309086561203, -0.21691833436489105, -0.10783856362104416, 0.12589481472969055, -0.11336998641490936, -0.14197203516960144, 0.09326210618019104, -0.0043576061725616455, -0.06859077513217926, 0.011075258255004883, -0.19559811055660248, 0.20619207620620728, -0.1045958399772644, 0.1843782365322113, -0.03097228705883026, -0.22455918788909912, -0.2167840301990509, -0.16451552510261536, -0.024496927857398987, -0.22153304517269135, -0.07929626107215881]}, "b": 0.0, "f": "relu"}, "neuron_38": {"i": ["x1", "x31"], "o": ["o38"], "p": {"w": [-0.10759422183036804, -0.02904638648033142, 0.05416253209114075, -0.0941394567489624, 0.09395703673362732, 0.10066398978233337, -0.14687298238277435, -0.20068620145320892, 0.011813610792160034, 0.15672072768211365, 0.03134113550186157, -0.15226998925209045, -0.027633219957351685, 0.05067121982574463, -0.19902265071868896, -0.03488779067993164, -0.07505999505519867, -0.04715642333030701, 0.1660546064376831, -0.1392437219619751, -0.22312751412391663, -0.10841615498065948, 0.1355920135974884, 0.20558449625968933, 0.15451699495315552, 0.1195167601108551, -0.15506494045257568, -0.22928841412067413, 0.036113858222961426, 0.08157607913017273, 0.18926993012428284]}, "b": 0.0, "f": "relu"}, "neuron_39": {"i": ["x1", "x31"], "o": ["o39"], "p": {"w": [-0.06922075152397156, 0.2019060254096985, -0.013553813099861145, 0.0024631917476654053, 0.01589140295982361, -0.07651416957378387, 0.09271499514579773, -0.05974800884723663, -0.10528185963630676, -0.021096721291542053, -0.02267979085445404, -0.08340366184711456, 0.059177905321121216, 0.1807933747768402, 0.02433955669403076, -0.20681561529636383, -0.22793634235858917, -0.007797509431838989, 0.09311527013778687, 0.10299786925315857, -0.16958525776863098, -0.14862483739852905, 0.030051201581954956, -0.19427868723869324, 0.1440015435218811, 0.10510629415512085, -0.05290597677230835, 0.11819538474082947, -0.056867972016334534, 0.09737443923950195, -0.10144618153572083]}, "b": 0.0, "f": "relu"}, "neuron_40": {"i": ["x1", "x31"], "o": ["o40"], "p": {"w": [-0.005467399954795837, 0.08501848578453064, 0.14910227060317993, -0.08567290008068085, -0.14606529474258423, 0.12605613470077515, 0.17268574237823486, 0.16947561502456665, -0.008688732981681824, 0.1392364501953125, 0.17719018459320068, -0.2189822643995285, 0.17745089530944824, -0.14657482504844666, -0.019669368863105774, 0.13347747921943665, -0.13924288749694824, -0.06608951091766357, -0.10709013044834137, -0.07945246994495392, 0.06612637639045715, 0.05378079414367676, 0.09622529149055481, 0.04624930024147034, 0.00522477924823761, -0.022367700934410095, -0.2143295407295227, 0.20329031348228455, 0.017075419425964355, -0.09174178540706635, -0.08222696185112]}, "b": 0.0, "f": "relu"}, "neuron_41": {"i": ["x1", "x31"], "o": ["o41"], "p": {"w": [-0.18144531548023224, -0.07348224520683289, -0.2284897118806839, 0.1602858304977417, -0.0721585601568222, 0.1283911168575287, 0.05286228656768799, -0.16213303804397583, -0.02391839027404785, 0.21574446558952332, 0.14798560738563538, 0.05117863416671753, 0.10646519064903259, 0.06297847628593445, -0.20450425148010254, 0.13060441613197327, -0.16199710965156555, 0.006859496235847473, 0.055676043033599854, -0.16489505767822266, -0.0334562212228775, 0.012737199664115906, 0.1693570911884308, -0.19569140672683716, -0.07243499159812927, -0.0658927857875824, 0.16343837976455688, -0.2098526954650879, 0.05073854327201843, 0.06011307239532471, 0.04787647724151611]}, "b": 0.0, "f": "relu"}, "neuron_42": {"i": ["x1", "x31"], "o": ["o42"], "p": {"w": [0.0909307599067688, -0.11031411588191986, 0.13387691974639893, 0.22127622365951538, -0.20306485891342163, 0.11592137813568115, -0.11382950842380524, -0.07241824269294739, 0.07389849424362183, -0.18672607839107513, -0.17972561717033386, -0.0346231609582901, 0.05221712589263916, -0.10543566942214966, -0.0008238255977630615, 0.06799837946891785, 0.17241933941841125, 0.11099392175674438, -0.06077958643436432, -0.03752070665359497, 0.22208169102668762, 0.12739944458007812, -0.03431718051433563, 0.20247101783752441, 0.15433818101882935, -0.07324384152889252, 0.03164377808570862, 0.1011514663696289, 0.14957770705223083, 0.04420626163482666, 0.09160402417182922]}, "b": 0.0, "f": "relu"}, "neuron_43": {"i": ["x1", "x31"], "o": ["o43"], "p": {"w": [0.06376877427101135, -0.09683436155319214, 0.22656142711639404, -0.02472984790802002, 0.17915543913841248, 0.18657004833221436, 0.14639756083488464, 0.046758830547332764, -0.10689766705036163, -0.04460044205188751, 0.20150968432426453, -0.1349252462387085, 0.031186074018478394, 0.004307389259338379, 0.1738637089729309, -0.1764076054096222, 0.1007407009601593, 0.1581261157989502, -0.1728878915309906, 0.015111103653907776, -0.1388590782880783, 0.13041812181472778, 0.04532104730606079, -0.12384697794914246, 0.1964910626411438, 0.06464877724647522, 0.19446110725402832, 0.011619538068771362, 0.08070522546768188, 0.22856348752975464, -0.024092942476272583]}, "b": 0.0, "f": "relu"}, "neuron_44": {"i": ["x1", "x31"], "o": ["o44"], "p": {"w": [0.06746286153793335, -0.050807565450668335, 0.18405506014823914, 0.07650956511497498, 0.09778517484664917, -0.07924166321754456, -0.04108254611492157, 0.07031401991844177, 0.11344459652900696, 0.08701804280281067, -0.09505513310432434, -0.014402136206626892, -0.14812949299812317, -0.05548284947872162, -0.14820167422294617, 0.07551589608192444, 0.008534789085388184, -0.12342531234025955, -0.014271095395088196, -0.21225973963737488, 0.11745470762252808, 0.008134201169013977, 0.20364394783973694, 0.014782831072807312, 0.21159479022026062, 0.16510596871376038, -0.21020573377609253, 0.09410566091537476, 0.05886483192443848, 0.12806805968284607, 0.05825817584991455]}, "b": 0.0, "f": "relu"}, "neuron_45": {"i": ["x1", "x31"], "o": ["o45"], "p": {"w": [0.0850389301776886, 0.08908885717391968, -0.049138426780700684, 0.1838933825492859, 0.16142383217811584, -0.1326994001865387, 0.023794114589691162, 0.16200602054595947, 0.19140625, 0.015423119068145752, -0.13587088882923126, -0.06310619413852692, -0.19635480642318726, -0.19005094468593597, -0.14955052733421326, 0.21994265913963318, -0.07788731157779694, -0.22361065447330475, -0.13370463252067566, 0.01968538761138916, 0.10977664589881897, -0.10014265775680542, -0.10324348509311676, 0.10396590828895569, 0.1504681408405304, -0.1662512868642807, -0.0798112154006958, 0.2040378451347351, 0.12342682480812073, -0.10095877945423126, -0.016697213053703308]}, "b": 0.0, "f": "relu"}, "neuron_46": {"i": ["x1", "x31"], "o": ["o46"], "p": {"w": [0.17056411504745483, -0.12579543888568878, 0.019603461027145386, 0.14622732996940613, -0.09358327090740204, 0.06339642405509949, 0.0037146657705307007, -0.03290723264217377, -0.1018441766500473, -0.08344823122024536, -0.060645490884780884, 0.22634020447731018, 0.09602567553520203, -0.18736685812473297, 0.22413897514343262, 0.10710465908050537, 0.18175041675567627, 0.05583605170249939, -0.1554315686225891, -0.14812517166137695, 0.18959414958953857, 0.032028794288635254, 0.19420939683914185, 0.1029595136642456, -0.1687343269586563, -0.11212389171123505, -0.008157700300216675, -0.15993091464042664, 0.12058696150779724, 0.13169288635253906, 0.16318956017494202]}, "b": 0.0, "f": "relu"}, "neuron_47": {"i": ["x1", "x31"], "o": ["o47"], "p": {"w": [0.06343722343444824, 0.03159821033477783, 0.22140204906463623, 0.07226377725601196, 0.11364546418190002, 0.2185918688774109, 0.1967141032218933, -0.10099031031131744, 0.0031242072582244873, 0.21152597665786743, -0.10344143211841583, 0.06933227181434631, 0.18274006247520447, -0.10327258706092834, -0.05011296272277832, 0.03653493523597717, 0.009269654750823975, 0.08954837918281555, 0.07214757800102234, -0.02592289447784424, -0.23213376104831696, 0.10648044943809509, -0.15115442872047424, -0.07060852646827698, 0.20804697275161743, 0.03395482897758484, -0.05621372163295746, -0.1689707338809967, 0.1444515883922577, -0.1040586531162262, -0.21363946795463562]}, "b": 0.0, "f": "relu"}, "neuron_48": {"i": ["x1", "x31"], "o": ["o48"], "p": {"w": [0.11266329884529114, -0.10766556113958359, -0.010444283485412598, -0.06814117729663849, 0.07763943076133728, 0.025125861167907715, 0.1672123670578003, 0.04384329915046692, 0.07709121704101562, 0.08856219053268433, -0.1621098518371582, -0.2147122323513031, -0.08583769202232361, 0.199826180934906, -0.04190659523010254, -0.2294514924287796, 0.04603073000907898, -0.09717343747615814, 0.11187538504600525, 0.22001582384109497, -0.13923639059066772, -0.19452817738056183, 0.14224326610565186, -0.20220151543617249, -0.22802364826202393, 0.15069076418876648, 0.04942283034324646, -0.04651397466659546, 0.14830437302589417, 0.07349210977554321, 0.1541096270084381]}, "b": 0.0, "f": "relu"}, "neuron_49": {"i": ["x1", "x31"], "o": ["o49"], "p": {"w": [-0.18878412246704102, 0.11669802665710449, -0.19829566776752472, -0.06994031369686127, -0.17678603529930115, -0.21197226643562317, 0.16840285062789917, -0.15921851992607117, 0.1077355146408081, 0.004705280065536499, 0.10059946775436401, 0.048291534185409546, 0.12412890791893005, 0.018671005964279175, -0.027581900358200073, -0.22332501411437988, -0.13888978958129883, 0.06197139620780945, -0.2265232801437378, 0.010160088539123535, -0.16165032982826233, -0.06883589923381805, 0.08522957563400269, 0.09922903776168823, 0.20512175559997559, 0.05439728498458862, -0.1975894272327423, 0.051523804664611816, 0.019226431846618652, -0.10504698753356934, 0.143093079328537]}, "b": 0.0, "f": "relu"}, "neuron_50": {"i": ["x1", "x31"], "o": ["o50"], "p": {"w": [0.1864633858203888, 0.05834111571311951, -0.04885794222354889, 0.009271860122680664, -0.22849303483963013, -0.08836346864700317, 0.17669269442558289, -0.1783452033996582, -0.21066930890083313, -0.2111290991306305, -0.08414644002914429, 0.07643312215805054, 0.08941146731376648, 0.07400226593017578, -0.07695534825325012, -0.06357796490192413, 0.034741997718811035, 0.05918854475021362, 0.05286267399787903, -0.16864114999771118, -0.21597202122211456, 0.1537976861000061, -0.17927296459674835, 0.1604047417640686, 0.1592862606048584, 0.07772666215896606, -0.031607359647750854, -0.17690621316432953, -0.2182392030954361, 0.09910464286804199, 0.1407681703567505]}, "b": 0.0, "f": "relu"}, "neuron_51": {"i": ["x1", "x31"], "o": ["o51"], "p": {"w": [-0.06395074725151062, -0.03581032156944275, -0.20098042488098145, 0.059043824672698975, 0.06841391324996948, -0.2130889892578125, 0.16649633646011353, 0.1469857394695282, -0.15317296981811523, 0.05427667498588562, 0.14594095945358276, 0.20516392588615417, -0.17324870824813843, -0.19676005840301514, 0.07475250959396362, 0.06438887119293213, 0.1551417112350464, -0.09826065599918365, 0.21539059281349182, 0.10812824964523315, -0.09108342230319977, -0.04886636137962341, 0.07911023497581482, 0.10476329922676086, 0.08415251970291138, -0.03377799689769745, 0.00934569537639618, 0.08221974968910217, -0.18215644359588623, -0.1653621792793274, -0.1795687973499298]}, "b": 0.0, "f": "relu"}, "neuron_52": {"i": ["x1", "x31"], "o": ["o52"], "p": {"w": [0.13702940940856934, 0.20339679718017578, -0.10460780560970306, -0.05881991982460022, 0.07039844989776611, 0.18251469731330872, 0.23060008883476257, 0.13914138078689575, 0.029293566942214966, -0.018512412905693054, 0.07418516278266907, 0.12553396821022034, 0.005787909030914307, 0.03590211272239685, 0.0018420368432998657, 0.22949007153511047, -0.13673058152198792, 0.0016497969627380371, -0.019410401582717896, 0.020706981420516968, 0.06406572461128235, 0.1301429569721222, 0.14518439769744873, -0.14476853609085083, -0.07214502990245819, -0.1867004632949829, -0.12359332293272018, 0.1680690348148346, 0.0029196739196777344, -0.17221829295158386, 0.23169296979904175]}, "b": 0.0, "f": "relu"}, "neuron_53": {"i": ["x1", "x31"], "o": ["o53"], "p": {"w": [0.19660934805870056, -0.014804452657699585, -0.07114055752754211, 0.015902981162071228, 0.16840368509292603, -0.12635940313339233, 0.099668949842453, -0.18694868683815002, 0.20666256546974182, 0.1415156126022339, 0.007655873894691467, 0.14986172318458557, -0.18242445588111877, 0.14803633093833923, -0.03492109477519989, -0.04277436435222626, -0.214930459856987, 0.09476113319396973, -0.12134919315576553, 0.17199844121932983, -0.21959111094474792, -0.21316669881343842, -0.006069943308830261, -0.046834588050842285, 0.06724125146865845, 0.05287975072860718, 0.037931740283966064, 0.10918569564819336, -0.05463813245296478, 0.10488086938858032, 0.12491536140441895]}, "b": 0.0, "f": "relu"}, "neuron_54": {"i": ["x1", "x31"], "o": ["o54"], "p": {"w": [0.17844897508621216, -0.0282885879278183, 0.1614372432231903, -0.10539570450782776, -0.1616731733083725, -0.05817072093486786, 0.06301990151405334, -0.05269123613834381, 0.09908968210220337, 0.19912919402122498, 0.0015182048082351685, 0.026608645915985107, 0.0508885383605957, -0.09172432124614716, -0.2064988762140274, -0.20183584094047546, -0.02043205499649048, -0.06574299931526184, -0.013618618249893188, 0.13474947214126587, 0.09226322174072266, 0.16169428825378418, -0.23048877716064453, -0.18343323469161987, 0.019171863794326782, -0.18286606669425964, -0.020172134041786194, 0.04667937755584717, -0.007480934262275696, -0.06165006756782532, 0.12269937992095947]}, "b": 0.0, "f": "relu"}, "neuron_55": {"i": ["x1", "x31"], "o": ["o55"], "p": {"w": [0.010988906025886536, -0.13452236354351044, 0.020660698413848877, -0.21742242574691772, -0.012865692377090454, 0.05927535891532898, 0.004884704947471619, 0.03443259000778198, -0.012763649225234985, 0.10665404796600342, 0.16476145386695862, 0.023208707571029663, 0.14121302962303162, -0.019617825746536255, -0.08570161461830139, 0.041830360889434814, 0.062389910221099854, 0.13509279489517212, -0.0777243971824646, -0.07630586624145508, 0.053705453872680664, 0.01796862483024597, -0.10766290128231049, -0.10589736700057983, -0.1577671468257904, -0.052177488803863525, -0.15019065141677856, -0.19942551851272583, 0.1962190568447113, 0.04341742396354675, 0.0510563850402832]}, "b": 0.0, "f": "relu"}, "neuron_56": {"i": ["x1", "x31"], "o": ["o56"], "p": {"w": [-0.035437554121017456, -0.13066540658473969, 0.053557515144348145, 0.17745310068130493, -0.13009656965732574, -0.13610875606536865, -0.04081787168979645, -0.16970792412757874, 0.17321759462356567, -0.10125039517879486, -0.09412549436092377, 0.22311514616012573, 0.011736661195755005, 0.10808733105659485, -0.1636921465396881, 0.2314555048942566, -0.041202664375305176, -0.03897355496883392, -0.005843997001647949, -0.10632041096687317, 0.07953682541847229, 0.11533966660499573, 0.041477322578430176, 0.15276780724525452, -0.17937690019607544, 0.009544536471366882, -0.09358237683773041, 0.15140780806541443, 0.18482163548469543, 0.028898268938064575, -0.055869877338409424]}, "b": 0.0, "f": "relu"}, "neuron_57": {"i": ["x1", "x31"], "o": ["o57"], "p": {"w": [0.22928747534751892, -0.22965160012245178, 0.09252232313156128, -0.15221166610717773, 0.18460139632225037, -0.11341715604066849, -0.030905336141586304, -0.21405276656150818, 0.2298787534236908, -0.03299547731876373, -0.1984499990940094, 0.2035159170627594, -0.06169131398200989, 0.07609888911247253, -0.1745194047689438, 0.06348627805709839, 0.04134136438369751, 0.21075543761253357, -0.1627473682165146, -0.09578172862529755, -0.025327235460281372, -0.12636733055114746, 0.02204376459121704, -0.15092960000038147, -0.013906404376029968, 0.0044859349727630615, -0.015114426612854004, -0.16617251932621002, 0.025582164525985718, 0.078482985496521, 0.0733901858329773]}, "b": 0.0, "f": "relu"}, "neuron_58": {"i": ["x1", "x31"], "o": ["o58"], "p": {"w": [0.2186371386051178, -0.10643820464611053, -0.1889173835515976, -0.13691593706607819, -0.10935504734516144, -0.13476382195949554, 0.10564342141151428, 0.052199214696884155, 0.06361055374145508, 0.1490185558795929, -0.22457244992256165, 0.16266128420829773, -0.20385542511940002, -0.19841368496418, 0.1197744607925415, 0.10894441604614258, -0.05105212330818176, 0.20305350422859192, -0.05533552169799805, 0.18448233604431152, 0.07451453804969788, 0.12330508232116699, -0.21907499432563782, -0.19408844411373138, -0.05154196918010712, -0.19843730330467224, 0.08031341433525085, 0.04244422912597656, -0.16564413905143738, -0.15379208326339722, 0.017697393894195557]}, "b": 0.0, "f": "relu"}, "neuron_59": {"i": ["x1", "x31"], "o": ["o59"], "p": {"w": [0.15194648504257202, -0.033817410469055176, -0.04049137234687805, -0.21466505527496338, -0.11620761454105377, 0.17186015844345093, -0.027884945273399353, 0.010392844676971436, -0.16811344027519226, 0.11183056235313416, -0.05242355167865753, -0.007408931851387024, 0.06701293587684631, -0.213454931974411, 0.12924066185951233, 0.07071024179458618, 0.09062907099723816, 0.09414124488830566, -0.17553463578224182, 0.15375438332557678, -0.12325596809387207, 0.12526923418045044, -0.16973325610160828, -0.018292680382728577, -0.056127578020095825, 0.0123797208070755, 0.05202212929725647, 0.05478382110595703, 0.04473415017127991, 0.13404515385627747, 0.1309586763381958]}, "b": 0.0, "f": "relu"}, "neuron_60": {"i": ["x1", "x31"], "o": ["o60"], "p": {"w": [0.12749823927879333, -0.02249908447265625, -0.17872756719589233, -0.17772150039672852, 0.08233428001403809, 0.17270979285240173, -0.15862184762954712, 0.11816701292991638, 0.1091972291469574, 0.14304375648498535, -0.013475149869918823, -0.2260342687368393, 0.06252217292785645, -0.13985684514045715, -0.20066796243190765, 0.19122424721717834, 0.1829981505870819, 0.04227897524833679, 0.16563788056373596, -0.20777162909507751, -0.16612973809242249, 0.06614777445793152, -0.036575496196746826, 0.16258195042610168, -0.016500815749168396, 0.007251843810081482, 0.015507936477661133, 0.17859482765197754, 0.06461033225059509, 0.22994950413703918, -0.022937268018722534]}, "b": 0.0, "f": "relu"}, "neuron_61": {"i": ["x1", "x31"], "o": ["o61"], "p": {"w": [0.10651591420173645, -0.0013576745986938477, 0.21732881665229797, -0.04939490556716919, -0.06763304769992828, -0.08641429245471954, 0.12000337243080139, 0.06768691539764404, -0.049740687012672424, 0.10401681065559387, 0.18683600425720215, -0.021874919533729553, 0.0317634642124176, -0.09320943057537079, -0.13269540667533875, -0.11680350452661514, -0.15405404567718506, -0.02159416675567627, -0.10499599575996399, -0.0878450870513916, -0.02592816948890686, 0.2089993953704834, 0.08057767152786255, 0.011904239654541016, 0.03223389387130737, -0.051501959562301636, 0.04235360026359558, -0.0933489054441452, -0.19043874740600586, 0.03916683793067932, -0.0068899840116500854]}, "b": 0.0, "f": "relu"}, "neuron_62": {"i": ["x1", "x31"], "o": ["o62"], "p": {"w": [0.028164267539978027, 0.03434920310974121, 0.09457525610923767, 0.08468201756477356, -0.08712275326251984, -0.13501980900764465, -0.05948881804943085, 0.06274595856666565, 0.20327943563461304, -0.08935292065143585, 0.1314748227596283, -0.039167121052742004, -0.1643507182598114, -0.16481178998947144, -0.048500970005989075, 0.2215479612350464, 0.05017852783203125, 0.03807234764099121, 0.11919769644737244, -0.11119863390922546, -0.175248384475708, 0.11914241313934326, -0.17712311446666718, 0.20126402378082275, -0.01703488826751709, -0.07346025109291077, 0.0930376648902893, 0.17900878190994263, -0.16463784873485565, -0.11081970483064651, -0.03074800968170166]}, "b": 0.0, "f": "relu"}, "neuron_63": {"i": ["x1", "x31"], "o": ["o63"], "p": {"w": [0.11902058124542236, -0.046587929129600525, -0.09304569661617279, -0.06629404425621033, 0.07091677188873291, -0.06209069490432739, -0.03745591640472412, 0.18362852931022644, -0.025557219982147217, -0.1690496802330017, -0.18543054163455963, 0.07813310623168945, 0.14464858174324036, -0.037407293915748596, 0.08254364132881165, 0.13803881406784058, -0.17127995193004608, 0.08788958191871643, 0.019709110260009766, -0.15008112788200378, -0.19019068777561188, -0.0649341493844986, 0.05679917335510254, 0.09641429781913757, 0.0791180431842804, -0.11230609565973282, 0.0907229483127594, 0.030911415815353394, -0.1921868771314621, 0.0448269248008728, 0.06751421093940735]}, "b": 0.0, "f": "relu"}, "neuron_64": {"i": ["x1", "x31"], "o": ["o64"], "p": {"w": [-0.07819712162017822, 0.16456595063209534, -0.1023719310760498, -0.010568678379058838, 0.13788431882858276, 0.015322297811508179, 0.10358476638793945, -0.014331340789794922, 0.0441666841506958, -0.14077067375183105, 0.02043050527572632, -0.05814842879772186, 0.16728121042251587, 0.09987065196037292, -0.15494404733181, 0.0058097392320632935, -0.10400344431400299, -0.1195860356092453, -0.18976670503616333, 0.13964948058128357, 0.22240179777145386, -0.22716175019741058, -0.021660178899765015, -0.1215796247124672, 0.2124711573123932, -0.20753882825374603, 0.05289965867996216, -0.19983327388763428, -0.11985815316438675, 0.03765445947647095, -0.10280673205852509]}, "b": 0.0, "f": "relu"}, "neuron_65": {"i": ["x1", "x31"], "o": ["o65"], "p": {"w": [-0.01496259868144989, -0.19216027855873108, 0.11687999963760376, 0.11813557147979736, -0.002196177840232849, -0.1545322984457016, -0.11966037005186081, -0.03197897970676422, -0.2181902676820755, 0.2064100205898285, -0.20631562173366547, 0.037681907415390015, 0.15406379103660583, 0.04082357883453369, -0.10010385513305664, -0.06965106725692749, -0.16599592566490173, 0.15982753038406372, 0.1224031150341034, -0.14303942024707794, -0.10457538068294525, -0.2021748572587967, -0.008449703454971313, 0.15857374668121338, 0.19257649779319763, 0.1741284430027008, 0.1299225091934204, -0.06922724843025208, -0.13675402104854584, -0.16526761651039124, -0.14595094323158264]}, "b": 0.0, "f": "relu"}, "neuron_66": {"i": ["x1", "x31"], "o": ["o66"], "p": {"w": [0.01991686224937439, -0.19384831190109253, 0.1761738657951355, 0.10342386364936829, 0.2196466624736786, -0.0839342474937439, 0.19420135021209717, -0.168641597032547, 0.06611967086791992, 0.03851979970932007, -0.14050614833831787, 0.09825953841209412, -0.058698639273643494, -0.21398375928401947, 0.09684327244758606, 0.019313007593154907, -0.09115676581859589, 0.007203832268714905, 0.16432765126228333, -0.00850386917591095, 0.1979982852935791, 0.13527390360832214, 0.20482602715492249, -0.14467020332813263, 0.14342355728149414, -0.011296600103378296, -0.22125637531280518, -0.08167581260204315, -0.09716396033763885, -0.21320855617523193, -0.013205036520957947]}, "b": 0.0, "f": "relu"}, "neuron_67": {"i": ["x1", "x31"], "o": ["o67"], "p": {"w": [0.14352905750274658, -0.1004902720451355, 0.15864157676696777, -0.05598284304141998, 0.0005836337804794312, -0.1816779524087906, 0.22012847661972046, 0.11713099479675293, 0.07106700539588928, -0.009374022483825684, 0.22794264554977417, 0.015165746212005615, 0.0021042823791503906, 0.11058557033538818, -0.028692573308944702, 0.0008463263511657715, 0.10850796103477478, 0.18461808562278748, -0.19492517411708832, -0.04568566381931305, -0.20102731883525848, 0.19579923152923584, 0.1586359739303589, -0.19023209810256958, 0.10652461647987366, -0.1131119504570961, -0.10554072260856628, 0.03956368565559387, -0.062243908643722534, -0.048975229263305664, 0.11987349390983582]}, "b": 0.0, "f": "relu"}, "neuron_68": {"i": ["x1", "x31"], "o": ["o68"], "p": {"w": [-0.08411672711372375, 0.053700923919677734, 0.152651846408844, 0.116536945104599, 0.02519547939300537, -0.20414072275161743, 0.0818108320236206, 0.19115692377090454, 0.1456422507762909, 0.1506613790988922, -0.04725155234336853, 0.0955365002155304, 0.0950390100479126, -0.2172306925058365, -0.01449209451675415, -0.17265906929969788, 0.020920783281326294, -0.03213241696357727, 0.21165326237678528, -0.20490534603595734, -0.04548744857311249, 0.11636918783187866, -0.0424385666847229, -0.1510162353515625, 0.1354120969772339, -0.00032310187816619873, 0.12903890013694763, 0.14380553364753723, -0.21098670363426208, -0.02920597791671753, -0.09879268705844879]}, "b": 0.0, "f": "relu"}, "neuron_69": {"i": ["x1", "x31"], "o": ["o69"], "p": {"w": [0.0598166286945343, -0.16266189515590668, 0.13551568984985352, -0.23132739961147308, -0.10347972810268402, -0.08525024354457855, 0.01077742874622345, 0.04911166429519653, 0.1879253387451172, 0.18667468428611755, 0.087760329246521, -0.14677764475345612, -0.0006858557462692261, 0.020270466804504395, 0.19744503498077393, 0.2214968502521515, -0.03948518633842468, 0.07248687744140625, -0.1482873111963272, -0.1512264907360077, 0.12314549088478088, -0.024381905794143677, -0.06506586074829102, 0.03982508182525635, -0.07460550963878632, 0.2008189558982849, 0.14391297101974487, 0.15992358326911926, 0.2224676012992859, 0.008838176727294922, 0.2283540666103363]}, "b": 0.0, "f": "relu"}, "neuron_70": {"i": ["x1", "x31"], "o": ["o70"], "p": {"w": [0.1248939037322998, 0.0781308114528656, -0.13905197381973267, 0.1448458731174469, 0.17237132787704468, -0.0898388922214508, 0.10852590203285217, -0.030761048197746277, -0.19558531045913696, -0.07439875602722168, 0.15261000394821167, 0.13650834560394287, -0.14959731698036194, 0.09222635626792908, 0.13999280333518982, -0.10812430828809738, -0.14952918887138367, -0.05483204126358032, -0.18411105871200562, 0.01828247308731079, -0.13270482420921326, 0.06423750519752502, -0.04657018184661865, -0.12060796469449997, -0.21048642694950104, -0.014002978801727295, -0.04454207420349121, -0.17107269167900085, 0.14307305216789246, -0.05672191083431244, 0.06030553579330444]}, "b": 0.0, "f": "relu"}, "neuron_71": {"i": ["x1", "x31"], "o": ["o71"], "p": {"w": [-0.01265011727809906, -0.13155746459960938, 0.2106809914112091, 0.029217451810836792, 0.2015967071056366, -0.12217994034290314, 0.037965476512908936, -0.013010755181312561, -0.13415446877479553, 0.020408034324645996, 0.1156887412071228, 0.05110645294189453, -0.10005408525466919, 0.21084469556808472, -0.1770302653312683, 0.12679624557495117, 0.014230459928512573, 0.10720619559288025, -0.10297119617462158, 0.23182222247123718, 0.17981064319610596, 0.16798186302185059, -0.13920080661773682, 0.17380866408348083, -0.06113550066947937, 0.06413820385932922, 0.0652114748954773, -0.046759262681007385, 0.14164921641349792, 0.23216518759727478, 0.17002299427986145]}, "b": 0.0, "f": "relu"}, "neuron_72": {"i": ["x1", "x31"], "o": ["o72"], "p": {"w": [0.16308850049972534, 0.18106886744499207, 0.15529626607894897, -0.0586620569229126, 0.10179033875465393, -0.11348211765289307, -0.08219636976718903, 0.015057161450386047, -0.05744612216949463, -0.07686710357666016, -0.10151314735412598, -0.11963371187448502, -0.01890099048614502, -0.05353344976902008, -0.0035347938537597656, -0.0950048565864563, -0.01033337414264679, -0.10575982928276062, 0.1043112576007843, -0.22616243362426758, 0.05189201235771179, -0.19871944189071655, 0.16603383421897888, -0.13409210741519928, -0.10504715144634247, 0.08419761061668396, 0.06544044613838196, -0.23240597546100616, -0.23216202855110168, 0.22882062196731567, 0.031584203243255615]}, "b": 0.0, "f": "relu"}, "neuron_73": {"i": ["x1", "x31"], "o": ["o73"], "p": {"w": [-0.18071407079696655, 0.05742421746253967, 0.03453996777534485, 0.06737801432609558, 0.18337160348892212, -0.19270510971546173, 0.15451401472091675, -0.0878608226776123, 0.2009378969669342, -0.09687049686908722, -0.049200668931007385, 0.12925788760185242, -0.1816936433315277, 0.20720979571342468, 0.12117919325828552, 0.08277773857116699, -0.18180018663406372, 0.17354092001914978, -0.022705286741256714, -0.14696815609931946, 0.11536175012588501, -0.13800033926963806, 0.09235790371894836, -0.17357757687568665, -0.007446736097335815, -0.03413081169128418, -0.17649629712104797, -0.09451527893543243, 0.16746950149536133, -0.14142781496047974, -0.14682963490486145]}, "b": 0.0, "f": "relu"}, "neuron_74": {"i": ["x1", "x31"], "o": ["o74"], "p": {"w": [-0.013853088021278381, 0.20969659090042114, -0.19813331961631775, -0.08316752314567566, -0.13273969292640686, 0.10226523876190186, -0.08067445456981659, 0.05907386541366577, 0.005571216344833374, 0.10546472668647766, -0.2259370982646942, 0.07228642702102661, 0.2189314365386963, -0.05863450467586517, 0.1891571283340454, -0.08695696294307709, 0.18376466631889343, 0.2083471119403839, -0.02613835036754608, 0.051881879568099976, 0.2310495674610138, -0.09788228571414948, 0.04521477222442627, -0.07242900133132935, -0.15264692902565002, -0.20924466848373413, -0.12012338638305664, -0.10821931809186935, -0.23135849833488464, 0.20359787344932556, 0.1814638376235962]}, "b": 0.0, "f": "relu"}, "neuron_75": {"i": ["x1", "x31"], "o": ["o75"], "p": {"w": [0.12282049655914307, 0.1268957555294037, -0.07764691114425659, -0.02044413983821869, 0.022325456142425537, -0.18693915009498596, 0.2207571566104889, -0.22267276048660278, 0.1346752941608429, 0.06883662939071655, 0.17796406149864197, 0.2143566906452179, 0.20379316806793213, -0.19581934809684753, 0.006147429347038269, -0.11949379742145538, 0.09570086002349854, 0.20816177129745483, -0.026335641741752625, -0.10876764357089996, -0.2227688729763031, -0.006288111209869385, -0.020208552479743958, 0.11995109915733337, 0.06618678569793701, 0.0052188485860824585, 0.029094606637954712, 0.02956366539001465, 0.057695627212524414, -0.1890350580215454, 0.13182491064071655]}, "b": 0.0, "f": "relu"}, "neuron_76": {"i": ["x1", "x31"], "o": ["o76"], "p": {"w": [-0.21850283443927765, -0.03197227418422699, 0.1646498739719391, 0.22429224848747253, -0.1349378228187561, -0.2260705828666687, 0.12005355954170227, -0.011450916528701782, 0.08002552390098572, 0.1857929527759552, 0.03865709900856018, -0.024119719862937927, 0.1985926628112793, 0.20081374049186707, 0.20951318740844727, -0.05561107397079468, 0.10544520616531372, 0.19340205192565918, 0.11468204855918884, -0.22559304535388947, 0.04389634728431702, 0.23221147060394287, -0.1990620642900467, -0.08233273029327393, 0.09816303849220276, 0.08049741387367249, -0.22133387625217438, 0.04753220081329346, -0.0822179913520813, -0.006802350282669067, 0.13547128438949585]}, "b": 0.0, "f": "relu"}, "neuron_77": {"i": ["x1", "x31"], "o": ["o77"], "p": {"w": [-0.17966508865356445, -0.18666082620620728, 0.18307232856750488, -0.1708461493253708, 0.05749717354774475, 0.21811825037002563, -0.07605808973312378, -0.11525470018386841, 0.017085000872612, -0.08000494539737701, -0.12597110867500305, -0.022601842880249023, 0.22814470529556274, 0.11779305338859558, 0.14818209409713745, 0.1280752718448639, -0.14569401741027832, 0.01601223647594452, 0.1208353042602539, -0.18429630994796753, -0.1396234631538391, -0.044396668672561646, 0.10586991906166077, 0.19686782360076904, 0.13569217920303345, 0.15431419014930725, 0.10411190986633301, 0.10699716210365295, 0.1766306757926941, -0.1318131685256958, 0.019550591707229614]}, "b": 0.0, "f": "relu"}, "neuron_78": {"i": ["x1", "x31"], "o": ["o78"], "p": {"w": [-0.15695004165172577, -0.1458534300327301, -0.011502355337142944, -0.19753532111644745, -0.19122813642024994, -0.12019489705562592, -0.13278824090957642, -0.06187395751476288, 0.20927071571350098, -0.16826510429382324, 0.16546320915222168, 0.044078677892684937, -0.15729865431785583, -0.10423913598060608, 0.1855807602405548, 0.08347770571708679, -0.03761565685272217, 0.0382426381111145, 0.020999938249588013, 0.02872765064239502, 0.004052519798278809, 0.04228058457374573, -0.16446557641029358, -0.010839566588401794, 0.20061340928077698, -0.039826199412345886, -0.13172602653503418, -0.07155340909957886, -0.18595142662525177, -0.15369313955307007, 0.09590351581573486]}, "b": 0.0, "f": "relu"}, "neuron_79": {"i": ["x1", "x31"], "o": ["o79"], "p": {"w": [-0.05712909996509552, -0.10843073576688766, 0.03372117877006531, -0.17666658759117126, 0.21710485219955444, 0.18287071585655212, 0.06645962595939636, -0.2248966544866562, -0.048239439725875854, 0.14262577891349792, -0.08114162087440491, 0.0165729820728302, -0.09234394133090973, 0.18352526426315308, 0.1987035870552063, -0.005165800452232361, -0.021478980779647827, -0.057310983538627625, 0.061811476945877075, 0.03742104768753052, -0.0708896815776825, 0.0634630024433136, 0.07195040583610535, -0.09532685577869415, 0.10772848129272461, -0.21051381528377533, -0.027576401829719543, -0.021006986498832703, 0.21309465169906616, 0.09819692373275757, 0.01527927815914154]}, "b": 0.0, "f": "relu"}, "neuron_80": {"i": ["x1", "x31"], "o": ["o80"], "p": {"w": [0.023067206144332886, -0.14991238713264465, -0.13007932901382446, -0.08642953634262085, -0.17318306863307953, -0.13500195741653442, -0.0114278644323349, 0.16749542951583862, -0.012715533375740051, 0.06814250349998474, -0.01948888599872589, 0.23029664158821106, -0.18779799342155457, -0.22140797972679138, 0.13201355934143066, 0.04717409610748291, -0.07926677167415619, 0.1292576789855957, 0.027744263410568237, -0.18930412828922272, 0.15488117933273315, -0.08782468736171722, 0.1860489845275879, 0.2123481035232544, -0.026245281100273132, 0.08393913507461548, -0.15991416573524475, -0.1259612888097763, 0.02137848734855652, 0.03437736630439758, -0.0032808035612106323]}, "b": 0.0, "f": "relu"}}, "layer_2": {"neuron_81": {"i": ["o1", "o80"], "o": ["o81"], "p": {"w": [0.03, -0.07, -0.06, -0.15, 0.09, -0.15, -0.0, -0.18, 0.03, -0.06, 0.01, -0.04, -0.09, -0.17, 0.05, -0.0, -0.03, -0.08, -0.15, -0.01, -0.11, -0.14, -0.01, -0.11, -0.12, 0.15, -0.09, 0.14, -0.11, 0.03, 0.08, -0.13, -0.15, -0.0, -0.16, -0.13, -0.1, 0.13, 0.01, -0.03, 0.13, 0.04, 0.13, 0.1, 0.18, -0.07, 0.02, -0.18, 0.06, -0.09, 0.13, 0.11, -0.11, -0.07, 0.09, 0.15, -0.09, -0.11, -0.11, 0.08, 0.16, 0.07, 0.05, -0.11, 0.07, -0.18, 0.03, -0.1, 0.15, 0.11, -0.13, -0.08, 0.03, 0.11, 0.17, 0.08, -0.17, -0.17, 0.14, 0.16]}, "b": 0.0, "f": "relu"}, "neuron_82": {"i": ["o1", "o80"], "o": ["o82"], "p": {"w": [0.05, -0.0, -0.07, -0.18, 0.12, 0.1, 0.06, -0.12, -0.1, 0.0, 0.11, 0.15, -0.05, 0.16, -0.1, 0.16, -0.08, -0.13, 0.12, -0.18, 0.18, -0.12, 0.13, -0.13, -0.11, -0.09, 0.14, 0.03, -0.04, -0.09, -0.15, 0.01, -0.12, -0.06, -0.01, -0.15, -0.01, 0.09, -0.01, -0.08, 0.02, -0.01, -0.08, -0.03, -0.14, 0.07, 0.05, -0.04, 0.04, 0.13, -0.02, 0.13, -0.05, 0.02, 0.16, 0.15, 0.12, 0.05, -0.08, 0.05, 0.07, 0.06, -0.0, -0.09, 0.13, -0.04, -0.1, -0.0, 0.11, 0.13, 0.17, 0.08, 0.17, 0.07, 0.11, 0.15, -0.08, 0.06, -0.11, -0.0]}, "b": 0.0, "f": "relu"}, "neuron_83": {"i": ["o1", "o80"], "o": ["o83"], "p": {"w": [0.1, 0.06, -0.12, 0.06, 0.14, 0.04, 0.09, 0.18, -0.02, 0.07, -0.08, 0.05, 0.0, 0.1, -0.17, 0.16, 0.17, -0.1, -0.05, 0.04, 0.01, 0.06, -0.14, -0.15, -0.13, 0.13, 0.11, -0.16, 0.07, 0.08, -0.07, 0.16, 0.15, 0.06, 0.02, -0.1, 0.07, 0.08, -0.11, -0.03, 0.11, 0.1, 0.01, -0.09, 0.01, -0.15, -0.13, 0.08, -0.07, -0.13, -0.01, -0.18, -0.01, 0.04, 0.14, -0.09, 0.13, -0.06, 0.12, 0.12, -0.01, 0.18, 0.1, -0.15, -0.03, -0.0, 0.08, -0.13, 0.1, -0.0, 0.01, -0.0, -0.11, 0.0, -0.05, 0.05, -0.18, -0.17, 0.02, -0.17]}, "b": 0.0, "f": "relu"}, "neuron_84": {"i": ["o1", "o80"], "o": ["o84"], "p": {"w": [0.17, -0.09, -0.08, -0.17, -0.14, -0.05, 0.06, -0.18, -0.16, 0.06, -0.17, 0.06, -0.13, -0.11, 0.15, -0.15, 0.05, 0.16, 0.16, 0.12, 0.17, 0.1, 0.08, -0.05, 0.09, -0.04, 0.07, 0.03, -0.08, -0.13, 0.15, 0.07, 0.17, 0.03, 0.14, 0.08, -0.12, -0.13, 0.11, -0.17, 0.03, -0.18, -0.13, 0.08, 0.17, -0.06, -0.15, -0.12, -0.14, 0.13, -0.11, 0.08, 0.06, 0.14, -0.12, -0.08, -0.13, -0.18, 0.0, 0.05, -0.18, 0.01, 0.01, -0.18, 0.1, 0.02, -0.1, -0.11, -0.09, 0.07, -0.11, 0.18, -0.13, 0.05, 0.02, 0.06, 0.13, 0.04, 0.02, 0.18]}, "b": 0.0, "f": "relu"}, "neuron_85": {"i": ["o1", "o80"], "o": ["o85"], "p": {"w": [0.03, -0.09, 0.16, 0.17, -0.0, 0.08, 0.06, -0.05, -0.04, -0.05, 0.08, 0.0, 0.08, 0.06, 0.18, -0.06, 0.15, -0.08, 0.01, -0.02, 0.16, -0.06, -0.11, -0.17, -0.03, 0.13, -0.05, 0.02, 0.04, 0.04, -0.09, -0.04, 0.07, -0.15, 0.07, 0.06, 0.15, 0.06, -0.12, 0.09, 0.17, -0.08, 0.02, 0.1, -0.02, -0.11, -0.07, 0.18, -0.07, -0.12, 0.06, -0.11, -0.04, -0.11, -0.02, -0.08, 0.08, 0.05, -0.13, -0.17, 0.02, 0.01, 0.18, 0.18, -0.07, -0.13, 0.06, 0.17, -0.16, -0.05, -0.08, -0.11, 0.12, 0.07, -0.03, 0.03, -0.17, -0.07, -0.04, 0.07]}, "b": 0.0, "f": "relu"}, "neuron_86": {"i": ["o1", "o80"], "o": ["o86"], "p": {"w": [0.02, -0.05, -0.05, -0.02, -0.02, 0.02, -0.02, -0.15, 0.05, -0.11, -0.1, -0.09, 0.03, 0.11, 0.03, -0.13, 0.18, -0.17, -0.02, 0.07, 0.14, 0.08, -0.1, 0.16, 0.07, -0.15, 0.13, -0.08, -0.04, -0.12, 0.13, -0.1, 0.16, 0.01, 0.1, 0.13, -0.1, 0.01, -0.15, 0.02, -0.12, -0.14, -0.06, 0.17, 0.04, 0.01, 0.17, -0.06, 0.08, 0.11, -0.08, -0.09, -0.16, -0.15, -0.06, 0.04, -0.17, -0.05, 0.1, 0.15, 0.03, -0.04, 0.04, 0.11, -0.07, -0.14, -0.15, 0.01, 0.17, -0.1, -0.16, -0.0, -0.03, -0.16, 0.07, 0.07, -0.14, -0.13, 0.03, -0.12]}, "b": 0.0, "f": "relu"}, "neuron_87": {"i": ["o1", "o80"], "o": ["o87"], "p": {"w": [-0.04, 0.05, 0.17, 0.0, 0.07, -0.11, 0.02, -0.07, -0.04, -0.17, 0.01, -0.02, -0.18, -0.03, 0.14, 0.06, 0.0, -0.18, 0.13, 0.0, 0.05, 0.18, -0.08, -0.06, -0.03, -0.14, 0.03, 0.09, -0.11, -0.05, -0.15, -0.15, 0.12, -0.1, -0.16, -0.07, -0.12, -0.03, -0.1, -0.07, -0.17, 0.13, -0.04, 0.04, 0.17, 0.06, -0.05, -0.09, -0.02, -0.18, 0.03, 0.04, 0.09, 0.16, 0.17, -0.03, -0.1, 0.11, -0.18, -0.0, 0.15, 0.09, -0.12, 0.08, -0.12, -0.15, 0.14, -0.14, 0.12, -0.13, 0.09, -0.03, 0.04, -0.1, -0.17, 0.06, 0.03, -0.07, -0.14, 0.08]}, "b": 0.0, "f": "relu"}, "neuron_88": {"i": ["o1", "o80"], "o": ["o88"], "p": {"w": [0.11, -0.01, 0.08, -0.09, -0.14, 0.08, 0.01, -0.12, 0.13, -0.15, -0.14, 0.16, 0.08, 0.12, -0.04, 0.16, -0.1, 0.01, -0.11, -0.12, 0.04, 0.08, 0.09, 0.16, 0.16, 0.05, -0.17, 0.09, 0.13, -0.18, 0.11, -0.09, 0.08, 0.03, 0.09, 0.15, -0.03, -0.08, 0.06, -0.1, -0.17, 0.1, -0.12, 0.1, -0.08, -0.08, 0.17, -0.06, 0.13, -0.09, 0.06, 0.13, 0.0, 0.11, -0.14, 0.13, 0.02, 0.01, -0.12, 0.08, -0.01, 0.01, -0.03, 0.03, 0.15, -0.12, -0.07, 0.02, 0.05, 0.08, 0.1, 0.13, 0.04, 0.04, 0.07, 0.18, 0.13, 0.05, 0.0, -0.1]}, "b": 0.0, "f": "relu"}, "neuron_89": {"i": ["o1", "o80"], "o": ["o89"], "p": {"w": [-0.16, 0.02, 0.13, 0.11, 0.06, 0.03, -0.08, 0.03, 0.16, -0.02, 0.03, -0.06, 0.08, 0.0, 0.01, 0.13, 0.11, -0.14, -0.15, -0.02, -0.14, 0.06, -0.16, 0.11, -0.02, -0.11, 0.01, 0.17, -0.13, -0.08, -0.08, 0.03, -0.14, -0.14, 0.04, 0.18, -0.11, -0.18, 0.04, 0.09, 0.07, 0.17, 0.15, 0.14, 0.06, 0.13, -0.16, 0.16, -0.11, 0.05, 0.06, -0.08, 0.16, 0.07, 0.04, -0.09, -0.06, -0.06, 0.15, -0.08, -0.08, -0.01, 0.05, 0.09, 0.13, -0.16, -0.01, -0.15, -0.17, -0.16, 0.08, -0.07, 0.03, 0.16, 0.05, 0.15, -0.02, 0.05, 0.13, -0.09]}, "b": 0.0, "f": "relu"}, "neuron_90": {"i": ["o1", "o80"], "o": ["o90"], "p": {"w": [-0.16, 0.1, 0.03, -0.17, 0.01, 0.08, -0.14, -0.1, 0.14, 0.14, -0.13, 0.12, -0.14, 0.08, 0.04, 0.03, 0.09, -0.18, -0.08, -0.11, -0.07, -0.17, -0.06, 0.05, -0.13, -0.16, -0.16, -0.0, 0.09, -0.08, -0.01, 0.01, 0.02, -0.04, 0.14, 0.02, 0.07, 0.11, 0.04, -0.02, 0.14, -0.03, -0.01, -0.11, 0.13, 0.01, 0.01, 0.15, 0.01, -0.13, -0.16, 0.1, -0.17, -0.17, -0.17, 0.12, -0.13, 0.04, -0.02, -0.1, 0.09, 0.16, -0.12, 0.15, 0.05, 0.01, 0.13, -0.05, -0.16, 0.16, 0.18, -0.17, -0.02, 0.09, -0.07, 0.03, 0.17, -0.11, 0.0, 0.05]}, "b": 0.0, "f": "relu"}, "neuron_91": {"i": ["o1", "o80"], "o": ["o91"], "p": {"w": [-0.11, -0.15, 0.02, -0.13, -0.17, 0.01, 0.1, -0.17, 0.15, 0.17, 0.16, -0.09, -0.09, -0.16, 0.15, -0.03, -0.07, -0.04, -0.06, -0.16, -0.09, 0.12, -0.09, -0.15, -0.18, -0.0, -0.17, 0.15, 0.16, -0.04, -0.01, 0.13, 0.04, -0.16, 0.17, 0.13, -0.01, 0.09, -0.03, -0.08, 0.11, -0.08, 0.01, 0.03, -0.12, -0.12, 0.1, -0.15, 0.09, -0.12, -0.18, -0.04, 0.18, -0.05, -0.07, -0.09, -0.05, 0.18, -0.06, -0.01, -0.13, 0.04, -0.1, -0.12, 0.06, -0.15, 0.18, 0.0, -0.02, 0.11, -0.14, -0.01, 0.03, 0.0, 0.11, 0.12, 0.02, 0.06, -0.09, 0.11]}, "b": 0.0, "f": "relu"}, "neuron_92": {"i": ["o1", "o80"], "o": ["o92"], "p": {"w": [-0.03, -0.11, -0.16, 0.13, 0.0, -0.09, 0.09, -0.13, 0.17, 0.13, 0.11, 0.15, 0.02, -0.0, 0.07, 0.13, -0.15, -0.04, -0.01, -0.07, -0.17, -0.01, 0.0, 0.08, 0.11, 0.13, 0.09, 0.11, -0.17, -0.06, -0.08, -0.15, 0.02, -0.16, 0.02, 0.17, 0.09, -0.02, 0.14, -0.14, 0.06, 0.16, 0.03, -0.05, 0.0, -0.01, -0.13, 0.01, -0.0, 0.14, 0.12, 0.07, 0.16, -0.16, 0.05, -0.11, 0.01, -0.14, -0.01, 0.17, 0.14, -0.15, -0.15, -0.16, 0.06, -0.05, -0.15, 0.11, -0.03, 0.01, 0.02, -0.1, 0.06, -0.09, 0.18, 0.03, 0.11, 0.01, 0.09, -0.0]}, "b": 0.0, "f": "relu"}, "neuron_93": {"i": ["o1", "o80"], "o": ["o93"], "p": {"w": [-0.08, 0.01, -0.04, -0.02, -0.14, -0.14, 0.17, 0.08, -0.13, -0.17, 0.05, 0.03, 0.17, -0.16, -0.06, -0.13, -0.12, 0.08, 0.02, -0.17, -0.01, -0.16, 0.17, -0.08, -0.07, 0.17, -0.06, 0.1, -0.09, -0.12, -0.11, -0.06, 0.07, 0.02, 0.12, 0.13, -0.15, 0.17, -0.11, 0.03, 0.11, 0.1, 0.17, -0.15, -0.1, -0.08, -0.11, -0.13, -0.15, 0.08, 0.03, -0.15, -0.04, -0.15, -0.11, 0.09, 0.12, 0.08, 0.03, -0.07, 0.0, 0.12, 0.1, -0.12, 0.15, -0.1, -0.06, -0.07, -0.02, -0.07, 0.1, 0.1, -0.04, 0.08, 0.06, -0.15, 0.18, -0.06, 0.09, 0.15]}, "b": 0.0, "f": "relu"}, "neuron_94": {"i": ["o1", "o80"], "o": ["o94"], "p": {"w": [-0.05, 0.11, 0.12, -0.14, 0.1, 0.09, -0.03, 0.07, -0.01, 0.09, -0.05, -0.12, -0.04, -0.18, 0.1, 0.01, 0.16, 0.15, 0.12, 0.05, 0.11, 0.1, 0.06, -0.04, 0.15, -0.13, -0.16, 0.04, -0.06, -0.03, 0.04, 0.04, -0.02, -0.17, -0.03, 0.05, 0.04, -0.13, -0.02, -0.12, 0.05, -0.17, -0.02, 0.16, 0.16, 0.15, 0.06, 0.14, 0.09, 0.14, 0.18, 0.1, 0.16, -0.15, -0.0, -0.05, 0.06, -0.1, 0.12, -0.12, 0.13, -0.02, 0.12, 0.0, -0.1, 0.1, 0.08, 0.17, 0.17, 0.13, -0.0, 0.03, -0.01, 0.14, 0.12, 0.13, 0.15, 0.13, 0.03, 0.0]}, "b": 0.0, "f": "relu"}, "neuron_95": {"i": ["o1", "o80"], "o": ["o95"], "p": {"w": [0.11, -0.08, -0.0, 0.14, -0.12, 0.16, -0.02, -0.13, 0.17, -0.08, -0.01, -0.04, 0.12, 0.04, 0.11, 0.13, 0.08, 0.17, 0.15, -0.02, 0.02, -0.13, -0.03, -0.08, -0.11, -0.07, 0.16, -0.09, 0.1, 0.04, -0.11, 0.17, 0.11, -0.1, 0.04, 0.06, -0.17, 0.15, -0.04, -0.12, -0.12, 0.08, 0.1, -0.09, 0.09, 0.11, -0.09, 0.18, 0.07, -0.15, 0.04, -0.01, -0.06, 0.12, 0.06, 0.01, -0.05, 0.09, -0.07, 0.03, -0.02, -0.18, -0.05, 0.11, -0.13, -0.15, -0.09, -0.08, -0.0, -0.03, 0.13, 0.09, 0.0, 0.14, 0.16, -0.17, -0.02, 0.15, -0.08, -0.04]}, "b": 0.0, "f": "relu"}, "neuron_96": {"i": ["o1", "o80"], "o": ["o96"], "p": {"w": [0.15, 0.01, 0.0, 0.04, 0.08, -0.18, 0.1, -0.02, 0.15, -0.01, -0.03, -0.12, -0.15, -0.08, 0.09, -0.07, -0.12, -0.12, 0.08, 0.1, 0.12, 0.11, 0.18, 0.17, 0.14, 0.14, 0.09, -0.07, -0.14, 0.11, -0.13, 0.18, 0.1, 0.07, -0.02, -0.03, 0.02, -0.06, -0.14, 0.01, 0.11, 0.04, -0.08, 0.0, -0.03, 0.05, 0.15, -0.02, -0.14, 0.15, -0.12, 0.16, 0.15, 0.16, -0.11, -0.1, -0.12, 0.16, -0.12, -0.13, -0.16, -0.09, 0.14, 0.09, 0.08, -0.0, -0.13, -0.15, 0.06, -0.18, -0.09, -0.05, -0.06, 0.1, 0.14, -0.11, -0.04, -0.15, 0.04, -0.01]}, "b": 0.0, "f": "relu"}, "neuron_97": {"i": ["o1", "o80"], "o": ["o97"], "p": {"w": [-0.06, -0.02, 0.06, 0.16, -0.14, 0.13, -0.02, -0.01, -0.07, 0.1, -0.07, -0.17, 0.14, 0.09, 0.17, -0.07, 0.1, 0.04, -0.12, 0.04, 0.03, 0.18, 0.09, 0.16, 0.08, -0.17, -0.07, -0.03, 0.11, 0.1, -0.11, -0.08, 0.01, 0.02, 0.01, 0.07, -0.11, 0.15, 0.04, -0.1, 0.04, 0.08, 0.11, -0.13, 0.14, 0.15, -0.13, 0.17, 0.0, 0.08, -0.1, 0.11, -0.06, 0.06, 0.06, 0.05, 0.17, 0.14, 0.04, 0.04, 0.1, -0.08, 0.03, 0.02, 0.13, -0.06, 0.15, 0.17, 0.14, 0.18, -0.11, 0.16, 0.17, 0.17, 0.09, 0.18, 0.11, 0.07, -0.08, -0.09]}, "b": 0.0, "f": "relu"}, "neuron_98": {"i": ["o1", "o80"], "o": ["o98"], "p": {"w": [0.17, 0.07, 0.14, -0.06, 0.08, 0.08, 0.12, -0.04, 0.05, -0.03, 0.12, -0.03, 0.12, -0.0, -0.06, -0.01, 0.0, -0.15, 0.18, -0.12, -0.06, 0.01, 0.12, 0.01, 0.05, -0.15, 0.03, -0.04, -0.1, -0.06, 0.11, -0.04, -0.03, -0.18, 0.02, -0.15, 0.12, -0.12, 0.06, 0.15, 0.13, 0.03, 0.07, 0.1, 0.16, 0.13, -0.06, -0.11, 0.09, -0.07, 0.15, 0.16, -0.1, 0.05, 0.05, -0.16, 0.15, 0.06, -0.1, -0.07, -0.03, -0.12, 0.01, 0.12, 0.13, -0.03, -0.08, 0.12, -0.07, 0.08, -0.13, 0.05, 0.05, 0.16, -0.04, -0.16, 0.08, -0.14, -0.07, -0.02]}, "b": 0.0, "f": "relu"}, "neuron_99": {"i": ["o1", "o80"], "o": ["o99"], "p": {"w": [0.1, 0.09, -0.14, -0.1, -0.15, 0.08, -0.04, 0.01, 0.08, 0.12, -0.07, -0.1, 0.05, -0.09, 0.16, 0.15, 0.09, -0.05, -0.14, 0.12, 0.1, 0.03, -0.14, -0.01, -0.08, 0.11, -0.05, 0.04, 0.07, 0.09, -0.09, 0.0, 0.1, 0.18, -0.16, 0.14, -0.06, -0.14, 0.1, -0.01, 0.17, 0.05, 0.03, -0.17, -0.05, 0.17, 0.09, 0.12, 0.15, -0.04, 0.05, -0.07, 0.15, -0.16, 0.17, -0.04, 0.07, 0.16, 0.16, 0.11, 0.11, -0.05, -0.1, 0.08, 0.12, -0.09, 0.06, -0.05, -0.12, 0.15, -0.05, 0.05, 0.01, -0.15, 0.03, -0.08, 0.08, -0.03, 0.02, 0.09]}, "b": 0.0, "f": "relu"}, "neuron_100": {"i": ["o1", "o80"], "o": ["o100"], "p": {"w": [-0.01, 0.12, 0.14, -0.03, -0.06, -0.0, 0.08, 0.11, 0.03, -0.06, -0.15, 0.1, 0.1, -0.04, 0.16, -0.18, 0.12, 0.03, 0.14, 0.03, -0.18, -0.1, 0.14, -0.17, 0.13, 0.16, 0.09, -0.12, -0.14, -0.15, 0.05, -0.18, -0.01, 0.14, -0.02, 0.03, -0.1, -0.14, -0.14, -0.15, 0.05, -0.02, -0.07, -0.09, -0.14, 0.12, 0.07, -0.01, -0.07, -0.07, -0.18, 0.02, 0.18, 0.01, -0.08, 0.11, -0.04, -0.03, 0.09, -0.02, 0.01, 0.15, 0.15, -0.16, -0.03, 0.1, 0.02, 0.01, 0.07, 0.16, 0.0, -0.18, 0.15, 0.18, 0.06, -0.01, -0.09, 0.04, 0.12, 0.11]}, "b": 0.0, "f": "relu"}, "neuron_101": {"i": ["o1", "o80"], "o": ["o101"], "p": {"w": [-0.12, 0.14, 0.05, 0.15, -0.06, -0.05, 0.08, -0.16, 0.14, 0.16, -0.03, 0.17, 0.16, 0.09, -0.09, -0.09, -0.15, 0.06, 0.14, 0.1, 0.14, -0.11, 0.0, 0.0, -0.15, 0.12, -0.05, 0.05, 0.12, 0.03, -0.15, 0.17, 0.15, -0.16, 0.07, 0.0, -0.12, 0.06, 0.06, -0.18, -0.02, -0.06, 0.1, 0.0, -0.11, 0.05, 0.14, 0.06, 0.08, 0.07, 0.15, -0.1, 0.15, 0.12, -0.12, 0.12, -0.12, 0.12, -0.11, -0.14, 0.07, 0.11, 0.01, -0.11, -0.05, 0.03, -0.07, 0.08, 0.04, 0.17, 0.13, -0.16, -0.09, 0.06, -0.08, -0.02, -0.08, -0.1, -0.05, -0.06]}, "b": 0.0, "f": "relu"}, "neuron_102": {"i": ["o1", "o80"], "o": ["o102"], "p": {"w": [0.09, 0.01, -0.09, 0.07, -0.16, -0.0, 0.0, -0.12, -0.07, -0.1, 0.13, -0.09, 0.18, -0.03, 0.05, 0.1, 0.1, -0.02, 0.05, -0.16, -0.12, 0.03, -0.16, -0.15, 0.03, -0.13, -0.14, -0.12, 0.04, 0.04, -0.13, -0.17, -0.15, -0.13, 0.16, -0.01, 0.17, -0.08, 0.07, -0.12, 0.01, 0.1, -0.04, -0.02, -0.08, -0.11, -0.18, -0.06, 0.1, -0.15, -0.16, 0.09, 0.07, 0.07, 0.04, -0.12, 0.03, -0.16, -0.04, -0.13, -0.16, -0.01, 0.13, 0.08, 0.0, 0.05, -0.1, 0.05, 0.02, -0.17, -0.02, -0.11, -0.16, 0.11, -0.09, -0.08, -0.02, -0.13, -0.04, -0.01]}, "b": 0.0, "f": "relu"}, "neuron_103": {"i": ["o1", "o80"], "o": ["o103"], "p": {"w": [0.11, 0.1, 0.15, 0.12, -0.01, -0.12, -0.12, 0.0, -0.09, 0.17, 0.17, -0.01, -0.02, -0.11, 0.05, -0.1, 0.12, 0.03, -0.05, -0.07, -0.07, -0.09, -0.07, -0.16, -0.15, 0.02, -0.18, 0.02, 0.04, -0.04, -0.17, 0.13, -0.06, -0.14, 0.04, 0.18, -0.13, -0.17, 0.09, 0.11, 0.16, 0.06, -0.11, -0.07, 0.16, -0.1, 0.06, -0.07, -0.04, -0.02, 0.09, 0.08, -0.05, -0.06, -0.18, 0.03, 0.1, 0.11, 0.07, -0.11, 0.1, -0.07, 0.13, 0.07, -0.13, -0.13, -0.11, 0.17, -0.03, 0.12, 0.18, 0.08, 0.06, -0.03, 0.06, 0.13, -0.15, 0.06, -0.02, -0.16]}, "b": 0.0, "f": "relu"}, "neuron_104": {"i": ["o1", "o80"], "o": ["o104"], "p": {"w": [0.02, 0.16, 0.09, -0.15, -0.07, -0.09, -0.14, 0.01, -0.13, -0.17, 0.01, -0.11, 0.14, 0.13, -0.1, 0.09, -0.14, -0.03, -0.14, -0.14, 0.09, 0.05, -0.05, -0.0, -0.09, 0.14, -0.1, 0.06, 0.13, -0.07, 0.11, -0.03, -0.07, -0.17, 0.05, -0.16, 0.02, 0.07, 0.03, -0.01, -0.05, 0.08, 0.06, -0.06, 0.01, -0.06, 0.12, -0.0, -0.03, -0.13, 0.05, -0.17, 0.06, 0.15, -0.18, 0.06, -0.03, -0.01, -0.01, 0.1, -0.09, 0.07, -0.16, -0.05, 0.13, 0.18, 0.05, -0.16, 0.02, 0.0, 0.06, -0.05, 0.16, -0.03, -0.03, 0.0, -0.02, -0.03, -0.06, 0.03]}, "b": 0.0, "f": "relu"}, "neuron_105": {"i": ["o1", "o80"], "o": ["o105"], "p": {"w": [-0.0, -0.15, 0.17, -0.15, -0.12, -0.01, 0.04, 0.1, 0.07, -0.14, -0.08, -0.17, -0.16, -0.06, -0.13, -0.08, -0.07, -0.07, -0.13, 0.14, 0.05, 0.17, 0.14, 0.03, -0.04, -0.02, -0.06, 0.13, -0.02, -0.14, 0.06, -0.04, -0.08, 0.02, 0.18, -0.11, 0.09, 0.07, -0.1, 0.14, 0.07, -0.16, -0.12, -0.03, -0.15, 0.02, 0.05, -0.15, 0.05, -0.17, 0.06, 0.03, 0.01, -0.05, -0.16, -0.08, -0.16, -0.18, -0.04, 0.11, 0.14, -0.08, 0.13, -0.17, -0.17, -0.0, 0.0, 0.16, -0.01, -0.11, -0.01, 0.04, -0.08, 0.01, 0.14, 0.13, -0.13, -0.16, -0.07, -0.1]}, "b": 0.0, "f": "relu"}, "neuron_106": {"i": ["o1", "o80"], "o": ["o106"], "p": {"w": [0.14, 0.11, 0.15, -0.02, 0.14, 0.1, -0.06, 0.1, -0.1, -0.07, 0.09, 0.03, -0.09, -0.05, 0.16, 0.02, 0.1, 0.11, 0.13, -0.08, 0.17, 0.1, -0.09, 0.11, -0.17, -0.11, -0.04, -0.12, 0.09, -0.07, 0.14, 0.01, 0.13, 0.08, 0.15, -0.15, 0.1, -0.01, 0.12, 0.12, -0.18, -0.13, 0.13, -0.05, -0.01, 0.13, 0.03, -0.17, -0.04, 0.12, -0.02, 0.12, -0.09, 0.04, -0.05, 0.06, 0.04, -0.15, 0.15, 0.06, -0.03, 0.15, -0.08, 0.17, -0.08, 0.05, 0.08, -0.01, 0.05, -0.08, 0.07, -0.12, -0.09, -0.08, 0.05, -0.06, -0.17, -0.13, 0.04, 0.08]}, "b": 0.0, "f": "relu"}, "neuron_107": {"i": ["o1", "o80"], "o": ["o107"], "p": {"w": [-0.02, -0.08, 0.15, 0.14, 0.08, 0.02, 0.08, 0.1, -0.16, -0.06, 0.04, -0.04, -0.12, -0.14, -0.18, -0.13, 0.18, -0.0, -0.06, -0.07, 0.15, -0.04, 0.12, -0.05, -0.08, -0.13, 0.05, -0.14, -0.06, -0.0, 0.02, 0.0, 0.07, -0.14, -0.17, 0.17, -0.08, -0.16, 0.12, 0.12, -0.05, -0.18, -0.09, 0.03, -0.14, -0.1, 0.11, 0.16, 0.01, 0.16, -0.05, 0.01, -0.0, -0.07, -0.11, 0.17, -0.09, 0.02, 0.16, 0.13, 0.03, 0.15, 0.0, -0.03, 0.16, -0.07, 0.06, -0.1, -0.03, -0.06, -0.09, 0.07, -0.07, 0.03, 0.12, -0.12, -0.08, -0.03, -0.03, 0.04]}, "b": 0.0, "f": "relu"}, "neuron_108": {"i": ["o1", "o80"], "o": ["o108"], "p": {"w": [0.18, 0.11, 0.1, 0.13, 0.07, -0.13, -0.11, 0.08, -0.03, -0.09, -0.11, -0.04, -0.12, -0.03, 0.17, -0.15, 0.06, -0.01, -0.05, -0.13, 0.1, -0.08, -0.09, -0.04, 0.12, -0.16, 0.17, 0.03, -0.03, 0.07, -0.13, 0.03, 0.13, -0.05, -0.13, 0.13, -0.09, 0.15, -0.12, -0.02, -0.11, 0.02, -0.16, 0.03, 0.11, 0.15, 0.06, -0.15, -0.07, -0.1, 0.11, 0.05, 0.01, -0.0, 0.16, -0.06, -0.13, 0.04, -0.03, -0.03, -0.08, 0.16, 0.1, -0.03, -0.07, 0.18, 0.07, -0.04, 0.09, 0.07, 0.18, -0.04, -0.01, -0.16, 0.06, 0.03, 0.11, -0.14, -0.06, -0.04]}, "b": 0.0, "f": "relu"}, "neuron_109": {"i": ["o1", "o80"], "o": ["o109"], "p": {"w": [0.0, 0.15, 0.12, -0.17, 0.01, 0.16, 0.1, 0.02, -0.05, -0.16, -0.1, 0.03, 0.01, -0.03, -0.16, -0.12, -0.02, -0.16, -0.0, 0.09, -0.07, -0.12, 0.05, 0.06, -0.01, -0.14, -0.17, -0.01, -0.16, -0.14, -0.05, 0.13, 0.07, 0.11, -0.07, -0.1, 0.0, -0.0, -0.16, -0.04, -0.04, -0.01, 0.11, 0.01, 0.14, 0.13, -0.11, -0.05, 0.05, 0.03, -0.07, -0.17, 0.01, 0.18, -0.08, 0.15, -0.08, 0.04, 0.07, -0.1, 0.13, -0.01, -0.03, -0.03, -0.08, 0.15, 0.02, 0.12, 0.16, 0.06, -0.03, 0.14, -0.02, -0.07, 0.18, 0.13, -0.13, -0.01, -0.08, 0.12]}, "b": 0.0, "f": "relu"}, "neuron_110": {"i": ["o1", "o80"], "o": ["o110"], "p": {"w": [-0.02, 0.15, 0.04, 0.14, 0.12, 0.18, -0.16, 0.02, -0.12, 0.06, 0.03, -0.18, 0.07, -0.16, 0.01, 0.05, 0.16, -0.07, 0.15, 0.07, 0.15, -0.08, 0.17, -0.15, -0.04, 0.1, -0.1, 0.18, 0.12, -0.18, 0.09, -0.11, 0.07, -0.16, 0.11, 0.03, 0.14, -0.1, -0.1, -0.07, -0.17, 0.01, 0.07, 0.15, -0.04, -0.09, -0.17, 0.02, 0.17, 0.05, -0.18, 0.04, 0.16, -0.07, -0.03, 0.13, 0.03, 0.08, -0.13, 0.03, -0.05, 0.04, -0.02, 0.03, 0.13, 0.12, -0.12, -0.12, 0.1, -0.12, 0.14, 0.12, -0.11, 0.13, 0.11, -0.18, -0.13, 0.04, 0.09, 0.18]}, "b": 0.0, "f": "relu"}, "neuron_111": {"i": ["o1", "o80"], "o": ["o111"], "p": {"w": [-0.18, -0.17, -0.13, 0.02, -0.17, 0.01, 0.18, -0.01, -0.15, -0.15, -0.03, 0.17, 0.08, -0.12, 0.08, 0.07, -0.07, 0.07, -0.15, 0.15, -0.18, 0.03, -0.12, 0.12, 0.16, -0.03, -0.12, 0.08, -0.11, -0.09, 0.15, -0.03, -0.1, 0.1, -0.04, -0.04, -0.08, 0.13, -0.14, 0.1, 0.04, 0.05, 0.17, 0.12, -0.07, 0.15, -0.03, 0.09, 0.17, -0.1, -0.01, -0.01, -0.18, 0.0, 0.03, -0.18, -0.0, 0.11, -0.02, 0.11, -0.17, -0.01, 0.06, 0.02, 0.13, -0.05, -0.18, -0.13, -0.07, 0.14, -0.16, 0.06, 0.02, -0.14, -0.07, -0.09, 0.1, 0.05, -0.04, 0.04]}, "b": 0.0, "f": "relu"}, "neuron_112": {"i": ["o1", "o80"], "o": ["o112"], "p": {"w": [-0.14, -0.03, -0.11, -0.01, -0.1, -0.07, 0.05, 0.03, 0.16, 0.16, 0.06, -0.14, 0.04, -0.05, -0.09, -0.02, 0.1, -0.01, -0.09, -0.03, -0.06, -0.03, 0.18, -0.18, -0.06, -0.17, 0.18, 0.09, 0.08, -0.17, 0.12, 0.01, -0.15, -0.01, 0.03, 0.15, 0.04, -0.11, -0.13, -0.04, -0.14, -0.09, 0.07, 0.13, 0.02, 0.08, -0.09, -0.11, -0.13, 0.02, 0.11, 0.05, 0.05, 0.04, -0.05, -0.01, -0.01, -0.04, -0.14, -0.17, 0.07, 0.11, 0.03, -0.11, 0.15, 0.11, 0.0, 0.08, -0.05, 0.09, 0.17, 0.09, -0.15, 0.11, 0.03, -0.04, 0.05, -0.1, 0.12, -0.11]}, "b": 0.0, "f": "relu"}, "neuron_113": {"i": ["o1", "o80"], "o": ["o113"], "p": {"w": [0.02, 0.04, 0.12, 0.04, -0.11, -0.16, 0.04, 0.04, 0.06, 0.11, 0.0, -0.12, -0.04, -0.1, 0.04, 0.12, -0.05, 0.09, 0.02, 0.01, 0.18, 0.03, 0.05, 0.12, 0.16, -0.03, 0.07, -0.06, 0.13, -0.09, -0.08, -0.12, 0.14, 0.16, -0.18, 0.11, -0.01, -0.15, -0.09, 0.07, 0.1, -0.17, -0.11, 0.08, 0.07, -0.16, -0.18, -0.15, -0.17, 0.09, 0.05, 0.02, 0.05, 0.06, -0.18, 0.18, 0.01, -0.06, 0.08, -0.13, 0.12, -0.14, -0.17, 0.04, -0.1, 0.07, -0.06, 0.04, 0.03, 0.14, 0.1, -0.09, 0.18, 0.16, 0.06, -0.14, 0.18, -0.12, 0.13, -0.12]}, "b": 0.0, "f": "relu"}, "neuron_114": {"i": ["o1", "o80"], "o": ["o114"], "p": {"w": [0.11, -0.13, -0.05, -0.13, -0.13, -0.17, 0.16, -0.17, -0.15, -0.09, 0.04, -0.13, 0.17, -0.03, -0.07, 0.03, -0.13, 0.08, 0.04, -0.1, -0.11, 0.04, 0.06, -0.04, -0.1, 0.17, -0.08, 0.01, 0.08, 0.1, -0.12, 0.02, -0.09, 0.12, -0.06, 0.11, -0.14, -0.18, -0.03, 0.13, 0.04, 0.04, 0.0, 0.01, -0.01, 0.14, -0.09, -0.13, -0.14, -0.1, 0.1, 0.06, -0.14, 0.13, -0.02, -0.14, -0.06, 0.09, -0.16, 0.0, 0.14, 0.01, -0.07, -0.06, -0.13, -0.09, -0.05, 0.04, 0.14, 0.09, -0.06, -0.14, 0.01, -0.09, 0.14, 0.14, -0.02, -0.13, -0.02, 0.12]}, "b": 0.0, "f": "relu"}, "neuron_115": {"i": ["o1", "o80"], "o": ["o115"], "p": {"w": [0.07, 0.09, -0.09, -0.07, -0.14, -0.03, -0.08, 0.03, 0.18, 0.1, 0.01, 0.06, 0.14, 0.02, -0.1, -0.01, 0.06, 0.18, -0.08, 0.17, 0.04, -0.12, -0.18, 0.08, 0.02, 0.11, -0.14, 0.17, -0.05, 0.14, -0.16, -0.04, 0.03, 0.18, 0.1, -0.07, -0.05, -0.03, 0.04, -0.15, 0.17, -0.14, -0.05, 0.1, 0.18, 0.09, 0.13, -0.15, -0.15, 0.15, 0.09, -0.16, 0.14, -0.02, -0.05, 0.02, 0.06, -0.07, -0.0, -0.18, -0.07, 0.04, -0.04, 0.11, -0.01, -0.13, -0.11, -0.04, -0.14, 0.02, -0.08, -0.18, 0.02, -0.17, 0.0, 0.0, 0.15, -0.0, 0.13, 0.18]}, "b": 0.0, "f": "relu"}, "neuron_116": {"i": ["o1", "o80"], "o": ["o116"], "p": {"w": [-0.06, -0.18, 0.08, 0.04, 0.17, -0.12, -0.09, -0.16, 0.01, 0.03, -0.08, 0.18, -0.05, -0.14, 0.01, 0.08, -0.01, -0.13, 0.16, -0.01, -0.03, -0.04, -0.02, 0.02, 0.04, 0.17, -0.03, 0.11, 0.04, 0.15, -0.09, 0.15, 0.17, 0.12, -0.01, -0.04, -0.16, 0.14, 0.11, 0.06, -0.08, 0.13, -0.16, -0.18, 0.15, -0.14, 0.1, -0.07, 0.03, 0.01, -0.02, -0.01, -0.1, 0.17, 0.12, -0.17, 0.07, -0.15, 0.14, -0.1, -0.15, -0.17, -0.03, -0.09, 0.16, -0.16, 0.11, -0.17, -0.03, -0.1, -0.16, -0.04, -0.14, 0.03, -0.11, 0.02, 0.05, -0.17, -0.07, -0.04]}, "b": 0.0, "f": "relu"}, "neuron_117": {"i": ["o1", "o80"], "o": ["o117"], "p": {"w": [-0.07, -0.16, 0.02, -0.03, -0.04, 0.11, 0.04, 0.06, -0.07, -0.08, 0.03, -0.16, 0.17, 0.14, 0.07, 0.14, -0.07, 0.11, -0.03, -0.03, 0.05, -0.08, -0.15, -0.17, 0.17, -0.12, -0.11, -0.04, 0.09, 0.09, 0.13, -0.17, 0.02, -0.09, 0.04, 0.16, -0.08, 0.15, 0.18, 0.01, -0.09, 0.1, -0.01, 0.01, -0.04, -0.09, 0.05, -0.04, -0.14, -0.06, -0.02, -0.04, -0.04, -0.13, 0.14, -0.07, 0.04, -0.16, -0.08, -0.13, 0.1, -0.03, -0.05, 0.03, 0.11, -0.14, -0.01, 0.16, 0.01, -0.15, 0.17, 0.15, -0.13, -0.07, -0.18, -0.07, 0.12, 0.11, -0.08, 0.16]}, "b": 0.0, "f": "relu"}, "neuron_118": {"i": ["o1", "o80"], "o": ["o118"], "p": {"w": [0.02, -0.16, 0.07, 0.17, -0.14, -0.1, 0.04, -0.14, 0.14, 0.15, 0.08, -0.0, -0.1, -0.06, -0.1, -0.09, -0.01, -0.05, -0.11, -0.13, -0.17, -0.16, -0.13, -0.12, 0.13, -0.12, -0.01, 0.14, -0.05, -0.01, -0.17, 0.04, -0.11, 0.0, 0.17, 0.18, 0.15, 0.1, -0.17, -0.02, -0.17, -0.09, -0.15, 0.08, 0.06, -0.1, 0.09, -0.05, -0.09, 0.13, 0.1, -0.13, -0.06, 0.06, -0.16, -0.09, 0.04, 0.11, 0.09, -0.02, -0.15, 0.03, 0.01, 0.09, -0.07, 0.08, -0.14, -0.18, -0.16, 0.15, -0.17, -0.1, -0.02, -0.04, -0.09, -0.09, 0.18, -0.17, -0.1, 0.02]}, "b": 0.0, "f": "relu"}, "neuron_119": {"i": ["o1", "o80"], "o": ["o119"], "p": {"w": [-0.18, -0.09, -0.13, 0.05, 0.06, 0.11, 0.05, 0.09, 0.04, -0.04, 0.03, -0.05, -0.06, 0.08, -0.02, -0.07, -0.0, 0.17, -0.02, 0.09, -0.11, 0.03, 0.17, -0.16, 0.09, 0.16, 0.1, 0.09, 0.16, 0.11, 0.01, 0.09, 0.03, 0.01, 0.12, 0.05, -0.0, -0.08, 0.17, -0.06, -0.08, 0.17, -0.03, -0.02, -0.14, 0.06, -0.08, 0.12, 0.13, 0.1, 0.16, 0.07, -0.07, -0.17, 0.04, 0.01, -0.05, 0.1, 0.14, 0.09, 0.0, -0.08, 0.17, -0.02, 0.06, 0.0, 0.02, -0.11, 0.05, -0.1, -0.13, 0.02, -0.09, -0.13, 0.14, 0.1, 0.02, 0.16, -0.11, -0.07]}, "b": 0.0, "f": "relu"}, "neuron_120": {"i": ["o1", "o80"], "o": ["o120"], "p": {"w": [-0.17, -0.06, 0.13, 0.02, 0.0, 0.18, 0.17, 0.12, -0.14, 0.16, -0.06, -0.07, -0.13, 0.01, 0.14, -0.09, -0.14, -0.02, -0.11, -0.16, 0.13, 0.13, -0.14, 0.14, 0.09, -0.04, 0.09, -0.1, -0.16, -0.14, 0.03, 0.03, 0.01, 0.16, -0.14, 0.08, 0.15, 0.01, -0.0, -0.16, -0.09, -0.14, -0.09, 0.07, -0.17, -0.13, -0.14, 0.14, 0.11, -0.1, -0.08, -0.09, -0.05, 0.08, 0.07, 0.13, 0.15, 0.0, 0.04, 0.08, 0.08, -0.17, 0.02, -0.05, 0.17, -0.01, -0.13, 0.1, -0.15, 0.01, -0.18, 0.1, 0.06, -0.16, 0.06, -0.05, 0.01, -0.16, 0.01, -0.06]}, "b": 0.0, "f": "relu"}, "neuron_121": {"i": ["o1", "o80"], "o": ["o121"], "p": {"w": [-0.05, -0.14, -0.03, -0.05, 0.04, 0.15, 0.01, 0.02, -0.15, 0.07, -0.06, -0.1, -0.17, 0.13, -0.16, -0.07, 0.02, -0.02, 0.04, 0.07, -0.06, 0.07, 0.16, -0.17, 0.14, -0.12, -0.15, 0.04, 0.1, -0.01, -0.13, -0.15, 0.13, 0.1, 0.09, -0.07, 0.17, 0.05, 0.1, -0.07, 0.13, -0.09, 0.08, 0.11, 0.15, -0.06, 0.18, -0.07, -0.18, -0.08, -0.18, -0.14, -0.14, -0.06, -0.13, 0.04, -0.08, -0.1, -0.06, 0.05, -0.03, -0.07, 0.17, 0.13, -0.15, -0.07, -0.1, 0.16, -0.02, 0.09, 0.15, 0.05, 0.04, -0.03, 0.05, -0.02, 0.09, -0.14, 0.01, -0.14]}, "b": 0.0, "f": "relu"}, "neuron_122": {"i": ["o1", "o80"], "o": ["o122"], "p": {"w": [-0.05, -0.08, -0.09, 0.13, -0.1, -0.13, 0.16, 0.13, 0.03, 0.01, 0.15, -0.05, -0.15, 0.04, -0.12, -0.02, -0.15, 0.17, 0.16, 0.17, 0.18, -0.07, -0.0, 0.04, -0.15, -0.07, 0.15, -0.01, -0.01, 0.09, 0.07, -0.09, -0.08, -0.0, 0.1, 0.02, 0.08, -0.05, 0.18, 0.05, -0.15, -0.06, -0.02, -0.05, 0.15, -0.01, -0.16, -0.01, -0.15, 0.11, 0.08, -0.06, -0.0, -0.18, -0.02, -0.11, 0.01, -0.15, -0.06, 0.17, 0.17, -0.16, 0.11, 0.07, -0.12, 0.1, -0.06, -0.17, 0.06, 0.11, -0.09, 0.06, -0.13, -0.07, 0.1, -0.17, 0.08, -0.05, -0.12, 0.18]}, "b": 0.0, "f": "relu"}, "neuron_123": {"i": ["o1", "o80"], "o": ["o123"], "p": {"w": [-0.12, 0.01, -0.1, -0.12, 0.06, 0.15, 0.13, -0.04, -0.08, 0.01, 0.16, 0.13, -0.09, 0.01, 0.05, 0.05, -0.06, 0.07, -0.18, 0.03, -0.05, 0.13, 0.11, -0.11, -0.05, -0.05, 0.02, -0.08, 0.11, 0.15, -0.09, -0.08, -0.09, 0.13, -0.11, 0.1, -0.11, 0.1, 0.05, 0.09, -0.16, -0.01, 0.02, 0.1, -0.17, 0.13, -0.11, 0.07, -0.01, -0.05, -0.08, 0.04, -0.06, 0.09, 0.16, -0.18, -0.07, 0.14, 0.12, 0.03, 0.1, 0.1, 0.0, -0.12, 0.02, -0.14, -0.11, -0.08, -0.08, 0.04, 0.18, 0.04, -0.08, -0.07, 0.11, -0.14, -0.11, -0.1, -0.13, 0.05]}, "b": 0.0, "f": "relu"}, "neuron_124": {"i": ["o1", "o80"], "o": ["o124"], "p": {"w": [0.03, 0.07, -0.17, 0.13, -0.15, -0.01, 0.12, -0.16, -0.09, 0.13, 0.18, 0.18, -0.07, 0.13, -0.12, 0.03, 0.16, -0.1, 0.11, 0.0, 0.11, 0.08, -0.07, -0.05, 0.18, -0.12, -0.13, -0.12, 0.05, -0.05, -0.14, 0.01, -0.13, 0.16, -0.03, 0.09, -0.05, 0.09, 0.01, -0.1, -0.09, 0.08, 0.03, -0.07, 0.06, 0.11, 0.11, 0.03, -0.06, -0.1, 0.07, -0.0, -0.03, -0.02, 0.13, -0.02, 0.01, 0.05, -0.07, 0.06, -0.01, 0.18, 0.05, 0.02, 0.01, 0.03, -0.16, 0.18, 0.12, -0.0, 0.13, 0.0, 0.01, -0.09, 0.08, -0.01, -0.11, 0.09, -0.18, 0.09]}, "b": 0.0, "f": "relu"}, "neuron_125": {"i": ["o1", "o80"], "o": ["o125"], "p": {"w": [-0.03, 0.11, -0.17, 0.17, -0.09, 0.16, -0.16, 0.12, -0.13, -0.11, 0.04, 0.1, -0.07, -0.05, -0.1, 0.06, 0.02, 0.09, -0.01, -0.11, 0.16, -0.05, -0.06, 0.15, -0.08, -0.01, 0.18, 0.08, 0.07, -0.08, 0.15, -0.16, -0.11, -0.09, -0.13, -0.16, 0.03, -0.07, 0.09, -0.15, -0.04, 0.08, 0.06, -0.03, 0.17, -0.14, -0.03, -0.08, 0.09, -0.15, -0.0, 0.17, -0.04, -0.09, -0.03, 0.02, -0.08, 0.18, -0.07, -0.09, 0.06, 0.09, 0.1, -0.09, 0.17, 0.08, 0.04, 0.14, 0.15, -0.02, 0.1, -0.04, 0.16, -0.11, 0.08, 0.03, 0.02, -0.08, 0.18, 0.04]}, "b": 0.0, "f": "relu"}, "neuron_126": {"i": ["o1", "o80"], "o": ["o126"], "p": {"w": [0.05, 0.03, 0.09, 0.04, -0.12, 0.14, -0.11, 0.13, 0.08, -0.18, -0.09, 0.07, 0.06, 0.16, 0.0, 0.03, 0.08, -0.02, -0.02, 0.15, -0.01, 0.06, -0.12, -0.07, -0.02, 0.09, 0.03, -0.1, 0.16, -0.14, 0.14, 0.05, -0.15, -0.17, -0.14, -0.02, 0.07, 0.02, 0.03, -0.18, 0.03, 0.01, 0.08, -0.07, 0.03, -0.13, -0.16, 0.18, 0.04, 0.13, 0.03, 0.12, 0.05, 0.08, 0.12, 0.11, -0.12, -0.01, 0.03, 0.15, -0.14, 0.15, 0.02, -0.09, -0.17, 0.17, -0.03, 0.12, -0.07, 0.07, -0.14, -0.14, -0.1, -0.05, -0.18, -0.07, 0.14, -0.03, -0.14, -0.1]}, "b": 0.0, "f": "relu"}, "neuron_127": {"i": ["o1", "o80"], "o": ["o127"], "p": {"w": [-0.01, -0.02, 0.14, 0.15, -0.03, 0.02, 0.0, 0.06, 0.14, -0.12, 0.0, -0.03, -0.16, -0.03, -0.06, -0.11, 0.05, 0.15, -0.01, -0.01, -0.07, 0.17, -0.05, -0.18, -0.06, -0.18, -0.03, 0.13, 0.15, -0.11, 0.07, -0.01, 0.17, 0.14, -0.17, -0.14, -0.09, -0.08, 0.01, 0.08, -0.01, -0.11, -0.18, -0.13, 0.05, -0.03, -0.15, -0.11, -0.02, -0.04, 0.14, -0.1, 0.14, -0.07, 0.14, -0.02, 0.09, 0.12, 0.05, -0.14, -0.04, -0.07, 0.01, -0.03, -0.14, 0.13, 0.01, -0.01, 0.05, -0.07, 0.11, 0.03, -0.11, 0.04, -0.06, -0.04, 0.18, 0.01, 0.16, 0.03]}, "b": 0.0, "f": "relu"}, "neuron_128": {"i": ["o1", "o80"], "o": ["o128"], "p": {"w": [-0.08, -0.01, -0.04, -0.04, -0.02, -0.18, 0.13, 0.14, 0.16, 0.14, -0.12, -0.18, 0.04, -0.07, 0.05, 0.11, 0.04, 0.04, -0.1, -0.1, -0.02, -0.15, -0.12, 0.04, -0.14, -0.08, 0.09, -0.06, -0.06, 0.09, -0.13, -0.01, 0.09, -0.17, -0.0, -0.16, -0.02, -0.0, -0.12, -0.07, -0.02, 0.03, 0.04, 0.12, -0.12, -0.02, -0.13, 0.06, -0.16, 0.18, -0.03, 0.02, -0.15, 0.11, 0.1, -0.08, -0.08, -0.08, 0.09, 0.16, -0.06, 0.12, -0.16, -0.05, 0.1, 0.02, 0.07, -0.05, 0.17, -0.04, 0.03, -0.1, 0.06, -0.11, 0.18, -0.09, 0.02, -0.15, -0.12, 0.09]}, "b": 0.0, "f": "relu"}, "neuron_129": {"i": ["o1", "o80"], "o": ["o129"], "p": {"w": [-0.17, -0.1, 0.15, -0.02, 0.14, -0.01, 0.12, -0.06, -0.07, -0.1, 0.09, 0.0, -0.12, 0.02, -0.12, 0.07, 0.06, -0.11, -0.02, 0.04, -0.0, -0.01, -0.03, -0.07, -0.08, 0.12, -0.07, -0.07, 0.02, 0.18, 0.09, 0.01, 0.17, 0.17, 0.07, 0.1, -0.12, 0.01, -0.14, -0.15, 0.03, -0.12, -0.03, -0.04, -0.1, 0.08, -0.09, 0.01, -0.06, -0.06, 0.11, 0.14, 0.03, -0.02, 0.14, -0.17, 0.14, 0.15, 0.03, -0.08, 0.1, -0.06, 0.05, -0.06, -0.14, -0.06, -0.14, -0.07, 0.17, 0.08, 0.01, -0.1, -0.01, -0.04, -0.1, 0.05, -0.15, 0.06, -0.18, -0.06]}, "b": 0.0, "f": "relu"}, "neuron_130": {"i": ["o1", "o80"], "o": ["o130"], "p": {"w": [0.16, 0.17, -0.17, 0.15, -0.07, 0.15, 0.01, 0.02, 0.11, 0.13, 0.17, 0.02, -0.12, -0.17, 0.05, -0.07, -0.09, 0.14, 0.14, 0.1, -0.14, 0.12, 0.05, -0.05, 0.11, 0.04, -0.13, 0.06, -0.13, 0.12, -0.05, 0.09, -0.08, -0.13, 0.09, -0.17, 0.09, 0.04, 0.1, 0.02, -0.1, -0.06, 0.04, -0.07, 0.17, -0.06, -0.16, -0.11, 0.02, 0.12, 0.14, 0.15, -0.08, 0.11, 0.12, 0.08, -0.04, 0.1, 0.11, 0.13, 0.1, 0.11, -0.0, -0.07, -0.1, 0.15, 0.15, 0.05, 0.04, -0.0, 0.03, 0.1, 0.05, -0.0, 0.14, -0.1, -0.09, 0.16, 0.12, 0.15]}, "b": 0.0, "f": "relu"}, "neuron_131": {"i": ["o1", "o80"], "o": ["o131"], "p": {"w": [-0.0, -0.13, -0.02, 0.07, 0.16, 0.05, 0.1, -0.13, 0.06, 0.14, 0.18, 0.15, 0.01, 0.08, 0.08, -0.03, 0.1, 0.09, 0.15, 0.01, 0.07, 0.13, -0.14, 0.09, 0.1, 0.1, 0.12, 0.16, -0.03, -0.1, -0.08, 0.16, 0.04, 0.13, -0.05, -0.07, -0.15, -0.11, -0.08, 0.03, 0.13, -0.08, 0.14, 0.12, 0.16, -0.14, 0.06, -0.15, -0.16, 0.15, 0.07, -0.07, -0.01, -0.04, -0.0, -0.18, 0.15, 0.13, -0.17, 0.13, -0.17, -0.04, -0.08, 0.15, 0.15, 0.1, -0.1, -0.02, 0.13, -0.1, -0.16, -0.17, 0.02, -0.09, -0.09, -0.12, 0.04, 0.17, -0.06, 0.12]}, "b": 0.0, "f": "relu"}, "neuron_132": {"i": ["o1", "o80"], "o": ["o132"], "p": {"w": [0.05, -0.08, -0.1, 0.16, 0.15, 0.01, -0.03, 0.0, -0.18, 0.09, -0.06, -0.08, 0.01, 0.11, -0.16, -0.11, -0.08, -0.16, 0.11, -0.09, 0.06, 0.04, -0.1, -0.02, 0.07, 0.13, -0.14, 0.07, 0.12, -0.11, 0.09, 0.01, 0.1, -0.02, -0.14, -0.11, 0.02, 0.11, 0.17, -0.14, -0.1, 0.13, -0.07, -0.13, -0.14, -0.04, -0.13, 0.17, -0.14, 0.04, 0.08, 0.13, 0.15, 0.18, 0.09, 0.04, -0.01, -0.12, -0.07, -0.08, -0.16, -0.17, -0.1, 0.14, -0.08, -0.16, 0.03, 0.17, -0.11, 0.14, 0.12, 0.16, 0.13, 0.04, -0.17, -0.14, -0.11, -0.03, -0.05, -0.01]}, "b": 0.0, "f": "relu"}, "neuron_133": {"i": ["o1", "o80"], "o": ["o133"], "p": {"w": [0.05, -0.03, 0.09, -0.06, 0.0, -0.12, -0.16, 0.1, 0.12, -0.0, -0.11, -0.01, -0.16, 0.09, -0.13, 0.16, 0.11, 0.18, 0.13, 0.18, 0.07, 0.03, -0.1, 0.04, -0.06, 0.1, -0.07, -0.03, 0.11, 0.09, -0.07, 0.11, 0.11, -0.12, 0.06, 0.11, -0.08, -0.14, 0.1, 0.15, 0.11, 0.06, -0.11, -0.11, -0.11, 0.04, 0.08, 0.08, -0.17, -0.0, 0.13, -0.05, 0.15, -0.04, 0.07, -0.04, -0.0, -0.08, -0.11, -0.01, -0.02, 0.09, -0.1, 0.16, 0.13, 0.05, 0.08, -0.01, -0.16, 0.05, 0.13, -0.13, 0.11, 0.14, 0.05, -0.13, 0.09, -0.15, -0.08, -0.17]}, "b": 0.0, "f": "relu"}, "neuron_134": {"i": ["o1", "o80"], "o": ["o134"], "p": {"w": [-0.04, 0.06, 0.13, 0.06, 0.05, -0.08, -0.03, -0.16, -0.07, -0.03, 0.18, -0.16, -0.16, -0.07, -0.15, -0.18, -0.16, 0.07, -0.03, 0.02, 0.11, 0.07, 0.13, 0.14, -0.01, -0.04, 0.01, 0.16, 0.07, 0.13, -0.04, -0.05, -0.16, 0.15, -0.15, 0.07, -0.14, -0.09, -0.11, -0.09, 0.03, -0.18, -0.12, 0.08, 0.09, 0.15, 0.07, 0.05, 0.07, 0.16, 0.12, -0.1, 0.09, -0.06, 0.13, -0.16, 0.02, -0.07, 0.08, -0.05, -0.18, 0.13, 0.05, 0.11, 0.07, -0.02, -0.16, -0.03, 0.17, -0.18, -0.11, 0.11, 0.06, 0.01, 0.11, 0.13, 0.11, 0.16, -0.08, -0.16]}, "b": 0.0, "f": "relu"}, "neuron_135": {"i": ["o1", "o80"], "o": ["o135"], "p": {"w": [0.07, -0.05, -0.17, 0.03, 0.03, 0.14, 0.04, 0.12, -0.17, -0.14, -0.03, 0.09, 0.16, -0.06, 0.01, -0.06, -0.04, 0.12, 0.1, -0.04, 0.06, -0.07, -0.01, -0.05, 0.13, -0.02, -0.03, 0.1, -0.03, 0.04, 0.09, 0.05, -0.11, -0.14, 0.13, 0.0, -0.15, 0.1, 0.02, -0.12, 0.04, -0.16, 0.0, 0.05, 0.13, 0.17, 0.12, -0.17, -0.15, -0.06, 0.12, 0.01, 0.17, 0.03, 0.13, -0.15, 0.03, 0.09, 0.08, 0.05, 0.11, 0.11, 0.16, 0.03, 0.05, 0.07, -0.13, -0.08, 0.15, 0.09, 0.11, -0.16, 0.06, 0.14, -0.15, -0.06, -0.04, 0.02, 0.09, -0.13]}, "b": 0.0, "f": "relu"}, "neuron_136": {"i": ["o1", "o80"], "o": ["o136"], "p": {"w": [0.14, -0.04, -0.17, 0.12, 0.05, 0.06, 0.15, -0.06, 0.12, 0.18, -0.17, -0.08, -0.18, -0.17, 0.13, 0.14, -0.05, 0.13, -0.13, 0.13, 0.07, -0.08, 0.03, 0.06, 0.12, 0.12, 0.13, -0.03, 0.14, 0.05, -0.07, 0.07, 0.12, 0.06, 0.04, 0.06, 0.07, 0.1, -0.02, -0.01, -0.11, -0.08, -0.01, 0.03, 0.13, 0.03, 0.12, 0.09, -0.0, -0.09, -0.08, -0.07, 0.02, -0.15, -0.13, -0.11, 0.1, -0.17, -0.06, 0.08, -0.1, -0.16, 0.15, -0.04, 0.01, 0.17, 0.17, -0.08, 0.12, -0.1, -0.11, 0.09, 0.01, 0.02, 0.13, 0.02, 0.07, 0.09, -0.01, 0.13]}, "b": 0.0, "f": "relu"}, "neuron_137": {"i": ["o1", "o80"], "o": ["o137"], "p": {"w": [0.09, 0.15, 0.18, -0.01, 0.09, -0.01, -0.12, -0.17, 0.03, -0.18, 0.05, 0.06, 0.1, -0.09, -0.06, 0.09, 0.05, -0.03, -0.18, 0.02, 0.12, -0.06, 0.14, 0.17, -0.07, -0.12, -0.18, -0.18, 0.12, -0.14, -0.18, -0.03, -0.02, -0.03, -0.14, -0.06, 0.05, 0.15, -0.02, 0.14, 0.15, 0.01, -0.03, 0.11, 0.07, -0.07, -0.08, 0.07, -0.13, 0.16, 0.02, -0.14, -0.05, 0.16, -0.17, 0.1, 0.16, -0.0, 0.06, 0.03, -0.03, -0.18, 0.03, -0.18, 0.05, 0.02, 0.05, 0.07, -0.15, 0.17, -0.15, -0.18, -0.12, -0.14, -0.12, 0.11, -0.08, 0.12, -0.03, 0.18]}, "b": 0.0, "f": "relu"}, "neuron_138": {"i": ["o1", "o80"], "o": ["o138"], "p": {"w": [0.01, -0.02, -0.08, 0.04, -0.02, 0.03, 0.09, 0.15, -0.13, 0.05, 0.02, -0.1, -0.07, -0.11, 0.03, 0.1, 0.07, 0.09, -0.18, 0.04, 0.17, 0.1, -0.04, 0.09, 0.16, -0.06, 0.04, -0.05, -0.01, 0.12, 0.16, -0.08, 0.18, 0.1, -0.13, -0.03, 0.14, -0.11, -0.04, -0.12, -0.0, -0.09, 0.16, 0.11, -0.04, 0.16, -0.16, -0.06, 0.0, 0.0, -0.13, -0.16, -0.12, 0.15, 0.09, 0.09, 0.05, 0.1, 0.01, 0.16, 0.07, -0.13, 0.11, 0.13, -0.02, 0.1, 0.18, 0.0, -0.06, 0.06, 0.12, 0.05, 0.0, -0.16, -0.07, 0.1, 0.11, -0.17, -0.11, -0.18]}, "b": 0.0, "f": "relu"}, "neuron_139": {"i": ["o1", "o80"], "o": ["o139"], "p": {"w": [0.03, 0.03, -0.11, -0.1, 0.06, 0.1, -0.15, 0.14, 0.0, -0.13, 0.03, 0.07, -0.05, 0.14, 0.17, 0.0, 0.16, -0.08, 0.03, 0.11, -0.02, -0.01, 0.1, 0.18, 0.13, -0.11, -0.18, -0.03, 0.01, -0.06, -0.15, 0.02, -0.07, 0.15, 0.01, 0.17, -0.15, 0.06, -0.06, 0.01, 0.13, 0.15, 0.07, 0.05, 0.01, -0.14, 0.04, -0.02, -0.14, -0.08, -0.09, 0.04, -0.16, -0.07, 0.1, -0.09, -0.06, 0.13, -0.11, 0.15, -0.18, 0.1, -0.07, -0.17, -0.13, -0.18, 0.14, -0.13, 0.09, 0.1, 0.14, -0.03, 0.0, -0.16, -0.01, 0.05, -0.0, 0.06, -0.02, -0.18]}, "b": 0.0, "f": "relu"}, "neuron_140": {"i": ["o1", "o80"], "o": ["o140"], "p": {"w": [0.17, -0.05, -0.09, -0.15, 0.18, 0.17, -0.16, 0.1, 0.13, 0.09, -0.05, -0.13, -0.12, 0.1, 0.07, 0.1, 0.15, 0.12, 0.18, -0.09, -0.0, -0.02, -0.17, 0.05, -0.13, 0.09, -0.11, 0.11, -0.11, -0.13, 0.1, -0.17, 0.11, -0.04, -0.08, -0.1, 0.05, 0.03, 0.14, 0.07, 0.02, 0.1, 0.12, 0.05, -0.15, -0.04, -0.15, 0.13, -0.0, -0.05, -0.08, 0.08, -0.13, -0.0, -0.11, -0.18, -0.0, -0.0, -0.15, -0.02, -0.09, -0.18, 0.05, -0.16, 0.01, -0.14, 0.01, 0.18, 0.08, 0.15, -0.05, -0.0, 0.04, -0.04, 0.14, -0.09, -0.05, 0.18, 0.15, 0.09]}, "b": 0.0, "f": "relu"}, "neuron_141": {"i": ["o1", "o80"], "o": ["o141"], "p": {"w": [0.03, 0.11, -0.14, 0.15, 0.12, -0.03, 0.13, -0.1, -0.04, 0.14, 0.15, 0.05, 0.09, -0.09, 0.18, 0.13, 0.11, 0.11, -0.12, 0.16, 0.13, 0.11, -0.12, -0.18, 0.0, -0.07, -0.15, -0.1, 0.13, 0.02, -0.05, -0.17, -0.06, -0.11, -0.0, 0.15, 0.18, 0.11, 0.07, 0.03, -0.01, -0.07, 0.14, -0.17, -0.01, -0.05, -0.14, -0.09, 0.11, -0.17, -0.11, -0.08, 0.05, 0.1, 0.06, -0.18, -0.03, -0.17, 0.13, -0.14, 0.02, 0.06, -0.08, 0.01, 0.1, 0.08, -0.04, -0.16, -0.17, -0.03, 0.04, 0.17, -0.0, 0.1, 0.1, -0.03, -0.06, -0.01, 0.15, -0.18]}, "b": 0.0, "f": "relu"}, "neuron_142": {"i": ["o1", "o80"], "o": ["o142"], "p": {"w": [0.12, -0.05, -0.1, -0.1, 0.12, -0.11, 0.1, -0.15, 0.06, -0.12, 0.05, 0.17, 0.1, 0.12, 0.13, -0.15, 0.17, 0.13, -0.01, 0.01, 0.04, -0.18, -0.14, -0.1, -0.12, -0.06, 0.01, 0.0, -0.01, 0.04, -0.1, -0.03, -0.09, 0.01, 0.15, -0.08, 0.05, 0.17, -0.16, 0.15, -0.06, -0.05, 0.01, 0.1, 0.13, -0.03, -0.05, 0.1, 0.15, -0.08, -0.02, 0.17, 0.12, -0.12, 0.13, 0.14, -0.16, -0.02, 0.17, 0.16, -0.17, 0.1, -0.15, -0.13, 0.11, -0.05, -0.06, 0.13, 0.15, -0.08, -0.05, 0.11, -0.03, 0.02, 0.05, -0.09, 0.17, -0.05, -0.17, -0.0]}, "b": 0.0, "f": "relu"}, "neuron_143": {"i": ["o1", "o80"], "o": ["o143"], "p": {"w": [0.07, 0.01, 0.0, 0.15, -0.05, -0.06, 0.06, -0.09, -0.11, 0.1, -0.14, -0.02, -0.13, 0.01, -0.02, 0.05, 0.06, 0.05, -0.12, -0.09, -0.09, 0.01, 0.01, -0.1, -0.12, 0.17, 0.09, 0.14, 0.08, 0.15, -0.14, -0.08, 0.16, 0.18, 0.11, -0.07, -0.11, 0.05, -0.01, 0.11, -0.04, -0.07, -0.18, 0.07, 0.15, 0.14, -0.09, 0.04, 0.14, -0.08, -0.07, 0.02, -0.03, -0.04, 0.08, -0.01, -0.02, -0.12, -0.02, -0.14, 0.06, 0.15, -0.08, 0.11, -0.15, 0.05, 0.06, -0.05, -0.1, -0.12, 0.12, 0.07, 0.13, 0.16, 0.11, 0.01, -0.07, -0.18, -0.11, 0.13]}, "b": 0.0, "f": "relu"}, "neuron_144": {"i": ["o1", "o80"], "o": ["o144"], "p": {"w": [-0.02, 0.17, 0.15, -0.13, 0.13, -0.05, -0.16, -0.05, -0.1, 0.11, 0.1, 0.02, -0.07, -0.03, -0.06, 0.08, 0.01, -0.05, -0.16, 0.1, -0.05, 0.0, -0.08, 0.08, 0.18, -0.13, -0.14, -0.01, 0.12, -0.12, -0.05, -0.14, -0.11, 0.07, 0.17, -0.03, 0.14, 0.06, -0.18, -0.16, -0.01, -0.16, -0.12, 0.0, 0.07, -0.18, 0.03, 0.09, 0.04, 0.15, -0.04, 0.15, -0.11, 0.11, -0.15, 0.14, -0.15, 0.01, 0.16, -0.07, 0.1, 0.1, 0.09, 0.05, -0.16, -0.04, 0.12, 0.13, -0.07, -0.12, 0.15, 0.09, -0.05, -0.11, 0.04, 0.07, -0.1, -0.05, -0.14, 0.06]}, "b": 0.0, "f": "relu"}, "neuron_145": {"i": ["o1", "o80"], "o": ["o145"], "p": {"w": [0.0, 0.14, -0.14, -0.15, 0.13, 0.07, 0.01, 0.16, 0.13, 0.09, -0.07, 0.02, 0.0, -0.13, 0.07, -0.11, -0.11, -0.17, -0.18, -0.06, -0.11, -0.15, 0.11, 0.14, -0.12, 0.06, 0.14, -0.18, -0.02, 0.09, -0.16, -0.11, -0.17, -0.06, 0.07, -0.05, 0.12, 0.07, 0.04, -0.15, -0.01, -0.02, -0.16, -0.02, -0.11, -0.13, -0.11, 0.07, -0.18, -0.02, 0.12, 0.01, 0.08, -0.0, -0.1, -0.06, 0.16, 0.17, -0.07, 0.12, -0.05, -0.04, 0.15, -0.13, 0.11, 0.02, -0.11, -0.15, -0.14, 0.18, 0.06, -0.09, 0.07, 0.13, -0.08, -0.1, 0.04, 0.14, -0.01, -0.13]}, "b": 0.0, "f": "relu"}, "neuron_146": {"i": ["o1", "o80"], "o": ["o146"], "p": {"w": [0.02, -0.14, 0.02, 0.03, -0.05, 0.02, -0.0, 0.15, 0.09, -0.0, -0.05, 0.12, 0.02, 0.01, -0.13, 0.14, -0.13, 0.09, -0.1, -0.0, 0.07, 0.16, 0.17, 0.16, -0.09, -0.06, 0.03, 0.05, -0.15, -0.02, 0.13, 0.01, -0.18, 0.11, 0.1, 0.15, 0.09, 0.16, -0.18, -0.11, 0.11, 0.07, 0.04, 0.03, 0.13, 0.0, 0.1, -0.18, -0.05, -0.15, -0.16, -0.01, -0.12, -0.15, 0.05, 0.08, 0.08, 0.01, -0.02, 0.12, -0.1, -0.11, 0.09, -0.04, -0.01, 0.13, -0.04, -0.14, -0.02, -0.15, 0.01, 0.05, -0.15, -0.09, -0.06, 0.18, 0.11, 0.16, 0.12, 0.03]}, "b": 0.0, "f": "relu"}, "neuron_147": {"i": ["o1", "o80"], "o": ["o147"], "p": {"w": [0.06, 0.16, -0.14, 0.18, 0.16, 0.06, 0.06, 0.0, -0.12, 0.13, -0.08, -0.06, 0.12, 